3.465168189685729604e-03,7.245970665601662343e-03,-4.271476018469401101e-03,-7.460234639071397847e-03,-7.744470928506800786e-03,1.087445413126363579e-02,-2.031889579620372102e-02,2.984082803138022547e-03,-9.469528868518343676e-03,9.175172944227698735e-04,6.117586018901192621e-03,-8.400865458533706212e-03,-4.273414824143816244e-03,-3.892178582989511419e-04,-9.227502359356567346e-03,7.114721528622771924e-04,-9.880908720055136055e-03,2.627346933971174726e-03,-3.544215217738023196e-05,-1.479584623366377027e-02,-5.637734094335876064e-03,3.406627770186588296e-03,-2.980097566795817440e-03,-4.458769198192716159e-03,5.464330649362619981e-03,-1.519145453420365447e-03,-5.335580445161081965e-03,5.334310214775046799e-03,-1.345494970299578562e-03,-1.752223312554300472e-02,-2.087145242042001778e-03,-1.314780113291029971e-02,-3.775372485965901564e-03,-1.329482071183461030e-04,-1.400234712747066949e-02,-2.318442193885440674e-03,4.878547646995197440e-03,-3.659050760294347508e-03,1.978190362550614372e-04,1.184021392083318275e-02,-6.444805894896446508e-03,5.595070204262839880e-03,-8.250185373744616142e-04,-2.204496703533972632e-03,2.933298660920560883e-03,2.717117565020857588e-03,-8.733774995830397014e-03,-1.378709533490199326e-04,-4.271648433968902548e-04,1.291598410620615860e-02,-1.879548544638014879e-02,9.471571690107019950e-03,1.268099134311163716e-02,2.059221757999962418e-02,-5.135611567593523392e-03,1.497292825072261708e-03,9.896870450420459930e-03,-8.999519634161500317e-03,8.091632303965857337e-03,-5.294262157458939216e-03,3.982884310781435212e-03,6.669479256464225583e-03,-1.785752848549028785e-02,2.698502868818490000e-03,-5.001711139858038176e-03,-3.457329413591489486e-03,5.578344325584001437e-03,1.799004335909703059e-02,9.890003698023201381e-03,-3.493321191598202334e-03,1.004416218497856776e-02,-7.389763051704359258e-03,-1.739484167868106737e-02,4.281886113052554670e-03,2.868683588001073523e-03,-9.130807851527811487e-04,-6.073637083288016894e-03,-1.559433985208684252e-02,7.461305231935630097e-03,-1.918348810177298355e-03,1.731469820555478489e-02,-5.985786366849577510e-03,1.072994834546232151e-02,3.283532698104636629e-03,-1.110887857309198791e-02,1.688809642814586079e-02,7.672643689024935022e-03,-6.256426513705721885e-03,6.338961713382574963e-04,2.070367654818537542e-03,-3.394496963705435650e-03,-1.701979599422692203e-03,-1.317594674605566084e-02,-1.473866571998976721e-03,-2.003686286443298950e-02,1.529928615323367970e-02,5.590291352937111664e-03,-1.937405860651289155e-02,-1.520122505761225748e-02,-4.564145873451993379e-03
1.191554220819680300e-02,1.206629945772136510e-02,-5.312243673028326126e-03,1.295264402526484851e-02,-6.508413612734742504e-03,1.237512627764309620e-02,8.041872131815267291e-03,-5.293046456460998375e-03,-1.098423826111572486e-02,-1.057213596507526956e-02,-5.099376830082199240e-03,5.675170282738438779e-03,-1.189491271115746159e-02,3.009663821159923574e-03,1.082128647471871687e-02,1.202410759296170147e-02,-8.176194131906192042e-03,-6.698498602809583279e-03,-5.073280217445782191e-03,3.090410786663243259e-02,1.981854982076433104e-03,-2.590950292645162294e-03,-3.972772666120632894e-03,2.797042684461078111e-03,1.212373061585651172e-03,-2.492175854135020643e-02,4.701484593940515391e-04,-9.005576088478888658e-03,9.591209614292176000e-03,-7.165164424995595915e-03,-1.097466149443842957e-02,1.368488895059395910e-03,-5.034553966144219954e-03,1.864457654226498850e-03,-8.124342664476600154e-03,-1.250316775988524320e-03,7.377463034931475150e-03,-2.579997089090386216e-03,-3.548428750671030717e-03,-8.664280409106477759e-03,4.942731248507672460e-03,1.560263360199446760e-02,-2.051549203530677722e-03,-3.719034403440395209e-03,8.079160999542041310e-03,7.750400704687940984e-03,-1.176728887276606676e-02,7.902084097793334386e-03,2.404144021543859130e-02,-6.239200293853333894e-04,1.382618574936336558e-03,-1.015748784192137266e-02,1.504601095799187535e-02,-8.959541245342766622e-03,2.968066302886121673e-03,8.173402715761803744e-03,-9.625681063587491690e-03,1.511724764065111755e-02,-6.617140415487224141e-03,-3.675158307898877819e-03,-1.054326817772159065e-02,1.016844672387227574e-02,5.150960151550414362e-04,-5.351601806426854215e-03,1.474992326816877003e-02,5.219715393030495074e-03,-1.590058157317761345e-03,-1.786439285687860604e-02,-3.773621173071743060e-05,-4.568046407109257849e-03,-1.542210940852036492e-03,5.635186877186151334e-03,-9.373706489570143852e-03,-1.777816362989788693e-02,-1.344456020683452947e-03,-2.668133794388533736e-03,-5.090274693612157828e-03,-4.847918276939806154e-04,5.784908104916330028e-03,2.533226074505359748e-03,3.587451865281204508e-03,-3.193573277314681533e-03,5.837498157311957724e-03,2.638286314313342124e-02,2.110869999852751835e-03,9.473722625875802966e-03,2.126883571610699731e-03,-7.952723596037127723e-03,2.278563809793430345e-02,7.315267682496816304e-03,-2.526658861887476001e-02,2.164464144481494535e-03,-2.690809943347697002e-03,1.584461640816764785e-02,2.287598789636019828e-02,-1.244592490524211621e-02,-2.933232329787099565e-03,1.314425766520736609e-02,3.362101439995123387e-03,1.296943552886041517e-02
6.135935504147477584e-03,7.249334322861365754e-03,-1.958963380285424875e-03,-3.578220151277262864e-03,-2.082854734518818467e-03,2.024774732336301342e-02,1.155068222870395990e-02,-3.957793747710024461e-04,7.913194903569077329e-03,9.987632535152895716e-03,-1.365486476726574840e-02,-2.648488588293751878e-03,-1.577709252668949708e-02,-1.859711131627796860e-02,1.398955732062970043e-03,-9.986398968017499989e-03,-3.441744339289821118e-03,4.327005601323253431e-03,-1.101494269774417646e-02,-1.051276506768315279e-02,-3.254613851141021329e-03,3.980197050204980352e-03,4.544791390089552956e-03,1.239726956106601725e-02,1.729891449392375116e-02,2.242183501879630933e-02,1.538290190431860702e-03,-1.916801390663593150e-03,1.505196054821394611e-02,-9.271679103135586561e-03,-2.691286827636269613e-03,-6.905511295613454533e-04,-2.759613550275488107e-03,-1.106112808530220230e-03,2.262017585772848884e-05,2.194256808394925550e-03,1.327076582376367567e-02,5.722783329054666711e-03,7.912446399841869746e-03,-1.189825578725391478e-02,-5.815152957993510556e-03,8.345263121781009005e-04,5.157798760606575666e-04,3.329739330862145370e-03,-8.823206620247218274e-03,1.483029145659848363e-02,3.383756613083213887e-03,1.318878212352827574e-02,7.302651941716784695e-03,-1.008923678876417866e-02,6.671029663911060871e-03,1.688766171399308860e-02,2.289748223675703263e-03,1.174913944059969824e-03,-8.781705973357718104e-03,-3.701158950125472621e-03,-3.223294820631338303e-03,-6.318466858025132294e-04,-9.669331226196899512e-03,1.308891543016648187e-02,9.847268308771604806e-03,2.120766023235451814e-03,-1.744599174669613623e-04,1.487625316347173732e-03,2.559282470249115218e-03,5.803925259540427921e-03,-4.984800088814571317e-03,1.881972343403525566e-02,-5.167592861608175797e-03,3.852187578873184602e-03,-3.609725668380543446e-03,-6.130153570347140340e-03,-5.854660846413727547e-03,-9.623801559276173520e-03,8.080409116739222658e-03,-1.938713292679243583e-02,5.064764647320196388e-04,-4.860129230170418674e-03,-2.107229920497340203e-03,2.083864968113413943e-02,6.739289167434526183e-03,-5.346479710298851539e-04,-5.288149704188341987e-03,1.470174540273442784e-02,-1.120320424919029820e-02,5.961453019390276081e-03,-1.122712854713774078e-02,5.155906606811845594e-03,-1.324599856490165165e-02,-1.024346506727469470e-02,1.021495816091137245e-02,-1.963200224511320660e-02,2.849659423101856114e-03,1.323297502958419025e-02,1.590507177763867764e-03,-5.927959759790515232e-03,-2.465829578560764079e-03,1.690913106843668426e-02,-9.989754587420948684e-03,-9.384067397490371623e-03
-2.948395423661882842e-03,-1.239926311358685931e-03,-1.352019936721129273e-02,-2.185610806944055136e-03,-1.170657399382081694e-02,-5.183368822579451866e-04,-6.748641948848257445e-03,2.458510621251082818e-03,3.119019511836716566e-04,7.471390634281736137e-03,8.934503329810281405e-03,2.314699764554411024e-03,2.039892031179020918e-02,-3.519338748494562231e-03,1.671185166742044509e-02,1.376794646967650004e-03,1.894821635300633373e-03,1.488193533293012509e-02,7.062736039153960903e-05,-6.724869830524730224e-03,-7.790582745882988075e-03,1.378430795186748326e-02,-1.881387226957484393e-02,9.118562998037621492e-03,-6.643695059725581060e-03,2.867048179188204371e-02,3.391577809754399604e-03,3.260433199168134757e-03,1.422486960599194175e-02,1.534955177591131210e-02,4.737333155547564234e-03,-1.288243803837537445e-03,8.122412428497023315e-03,-3.288431507939238493e-03,9.217092669238983321e-03,-5.535041014811700570e-03,-3.797363111646471470e-04,-1.509653528669263264e-02,-3.381154152180375870e-03,7.766665518315777304e-03,5.241836999438317414e-03,-7.600651379880461224e-03,3.760171305094372595e-03,9.577950579599991271e-03,-1.014489122973493383e-02,2.219391605373249171e-03,5.555231532412734444e-04,-1.268945803681464056e-02,-2.002382750121664470e-03,2.448332430936835807e-03,-8.588259926509697953e-03,-1.500720061712920717e-02,-5.485434226225936391e-03,-1.149400244571843754e-03,-4.124096396207493735e-03,-3.744147744797826898e-03,-1.380346359442383153e-02,-1.183995830684015337e-02,4.692492338017422576e-03,9.331376177102229316e-03,5.341094251597814854e-03,4.417946933637601978e-03,-9.607160908486069364e-03,1.682803981562979410e-03,6.765634405459593388e-04,-2.016520790872863237e-03,1.008370341478794993e-02,8.809572667944845156e-03,1.548397192038578063e-02,-3.922382366575329418e-03,-1.480179314899905847e-02,1.136181984839248517e-02,2.076948726693884657e-03,-9.925045167639928376e-03,1.780293709792801077e-02,-3.295283069986998815e-03,5.237986743022357214e-03,1.891606386637434195e-03,-3.597977849978704640e-03,-8.642612463733980940e-04,-9.751850736784929349e-03,1.120823953180981152e-03,-6.750547467585917873e-03,-1.418576549933794201e-02,-5.449499899079477544e-03,-7.773681297156010035e-03,-7.161224003418123311e-03,-5.554847931437667356e-03,-9.320880976571703849e-03,-2.073419422533422443e-02,1.315431850835021600e-02,3.095553388845016969e-03,-5.001800285772617198e-03,-1.064347179102305679e-03,-3.804747655760074097e-03,2.941676009564450200e-03,6.490952233832826719e-03,1.102643491866301360e-02,-2.400422697093786487e-03,3.870689681993905867e-03
-1.183608147762997900e-02,4.620824023593031113e-03,3.175472960282905641e-03,9.453043539281370811e-03,-1.246257366461334809e-02,-1.067588753092374269e-02,-1.364116423558548114e-03,9.668289660150189771e-03,-6.404360431170048884e-03,1.112265210548731183e-02,-6.098784488904958508e-03,-1.142263825514094715e-03,6.893528431008280610e-03,1.200867042376911088e-02,9.598811267485999124e-03,4.125688017735986909e-03,7.303280018728229572e-03,-1.471276306117139110e-02,5.798700142475020879e-03,4.724580661631954011e-04,1.264265122464260788e-02,-8.513164633436735504e-03,5.155794248663045018e-03,6.445870869777038832e-03,1.039880522435685135e-02,5.818459928363747423e-04,1.100258319660605069e-02,-6.783382905316695001e-03,7.747157567195172949e-03,-1.825922822289041767e-03,8.727719775140238556e-03,-2.484213587882217605e-03,2.130457485292860942e-02,-5.525485112748686157e-04,1.019247257730183064e-02,7.953288233996616552e-03,-1.211606525755307400e-03,5.984457257585576451e-03,6.799451020589898469e-03,7.906572039882654637e-04,3.716996888342784071e-03,2.289587605134514754e-04,-1.392975641307818424e-02,3.471840498894603055e-03,1.080156778951550482e-03,6.606655039244303460e-03,4.059307385126645698e-03,-1.826814211019281214e-03,-1.138586768632932067e-02,-1.802253534290007390e-03,-2.754135009791595489e-03,5.396323386362550639e-04,1.074176061215838078e-02,1.094607068436434299e-03,7.023267784920146813e-03,4.663993586620065850e-03,-7.584852087913436514e-03,4.428106233663169772e-03,-8.936266802776995921e-03,9.586435230496377982e-03,4.964207323285870074e-04,2.403559688383200259e-03,-1.051179996554704385e-02,-3.155028382947299131e-03,7.747899607915986579e-03,-1.389715195658482172e-02,-1.171280288588028191e-02,2.998523058537824054e-02,-2.110759378821350403e-03,7.218909365523690225e-03,5.372874424103926162e-03,6.578440392536875035e-03,9.157654978723131500e-03,1.736818619531707228e-02,-1.285082181154457298e-02,2.763323912474708027e-03,4.438433143403590526e-03,-1.565123597087110865e-02,7.184307149292943478e-03,1.254542082139851154e-02,8.167847865509184069e-03,6.244202185816605070e-03,8.597060800678527070e-03,-7.014339116861402143e-03,-1.734297966249138262e-02,7.024553015767953787e-04,2.414161210098135241e-03,-6.207930142427783068e-04,1.276701748884635779e-02,-3.883905511674235530e-03,1.807031932480948622e-02,4.038599737687247363e-04,9.309939118212659862e-03,-2.019566956670019661e-03,-1.560922348816612707e-03,-1.580513625623804902e-02,1.017796748255924213e-02,-4.032507252531880235e-03,-9.838060581520098602e-03,8.353584362645062253e-03
-3.634515242421704727e-03,-9.511989568759754779e-03,-9.108154836350376357e-03,2.690046929233066118e-03,1.044181214989640775e-02,9.846757810264648164e-03,4.743876892627848542e-03,-2.027792269482196069e-02,-4.053262248039294149e-03,-4.342685030643427674e-03,8.317966501875337718e-03,1.252282114212247000e-02,1.291452019921482570e-02,-7.493169415671158996e-03,-1.533163266890925740e-02,1.611310081878904827e-03,-1.235477036902128938e-03,-2.517441881124755552e-04,-3.104703732307000628e-04,-1.931274786601670443e-02,8.736943995753667508e-03,-5.089439217651854294e-04,-1.040847114848872032e-02,1.613778695045833562e-03,-3.539077369295000244e-03,-7.513804916608445190e-03,1.312296249882857063e-02,3.296291276565626541e-03,2.118897706847657457e-03,-2.395513679180635153e-02,1.356696349498255454e-02,-5.888592810261473152e-03,-4.491128774658404745e-03,1.770076545315271655e-03,5.476993525383883413e-03,-1.147571540563771270e-03,-6.201076100970434948e-03,4.270569729152171902e-03,-9.318361884373478794e-04,7.006448660619862823e-03,1.484869102129185089e-02,1.078034018525167274e-02,8.186293540124881321e-03,2.515198682179303237e-03,1.053534057552515252e-02,6.147681609798924356e-03,1.638789776126275272e-02,-1.352636500528228876e-02,-7.621501785491932926e-04,-1.501694930940365193e-02,7.988990990692581423e-03,1.087585883155835903e-02,9.328949536381329552e-03,-8.527493810936462651e-03,1.117736151345815124e-02,-1.141845349198336752e-02,-1.270426532081862792e-02,-4.884667004299028670e-03,-2.910724372696512057e-03,2.491990123323119428e-03,-3.751927577265304955e-03,1.340691918611318714e-03,2.383124448201978923e-03,5.538350753752215201e-03,-1.842296104159373005e-02,-6.765214108050838539e-03,-4.538114593639540513e-03,1.901927381719782303e-02,-2.058961796222217710e-03,-6.058603521418574195e-03,2.537328729663573812e-02,-7.019474189793018480e-03,8.666080132183621304e-03,1.016524461266706675e-02,2.754378514798037133e-03,2.492264284869277042e-04,3.023075025542615833e-03,-6.086172918367680450e-03,1.273150295501603241e-03,1.243930236188664842e-02,1.359292660061700575e-02,-1.126796134791454781e-02,8.477075336551228441e-03,4.643787768574362054e-03,2.447324198093606042e-03,6.959737087968961670e-03,7.146100349623973717e-03,-6.966124490630693812e-03,-9.796848498322257084e-03,-9.395570141835450292e-03,7.255275212276737253e-03,-5.179693924848595248e-03,-1.439136163671289126e-03,7.740411787924550251e-03,-1.286961944763475229e-03,-3.066171386157901576e-03,-1.172758431706075362e-02,-2.129884672331670229e-03,-3.314620816931966411e-03,-1.084392279874567093e-02
1.269562387220564588e-02,-6.313433455034088773e-03,-1.076343923774953889e-03,-3.934476125735855007e-03,1.345775334421902593e-02,-1.250518175707202202e-02,2.711573966300193615e-03,-2.263657910262523588e-04,-3.682561496899478589e-03,-1.143998617310727252e-02,3.702984298422713934e-03,7.595643854524082800e-04,-1.955113635995391064e-02,2.201711744331770124e-02,-7.603519890328951612e-03,8.356155426339644671e-03,7.026973985081368633e-03,-4.811679083084070135e-03,-6.191879338731050980e-03,1.032830000535808149e-03,-6.198577860963535961e-03,1.382456189630769210e-02,-5.371882444272129201e-03,-5.996853506672252671e-03,-8.167407874802520579e-04,-4.748907739978039909e-03,-1.274339989997665817e-02,-1.503914916102212784e-02,2.346735294869525465e-03,2.507671514844211913e-03,-6.627509343414769022e-03,1.053238594025307506e-02,1.265881476185956589e-02,1.768276987913787500e-03,9.966236764416302671e-03,1.295268528717179440e-03,-3.781701594560126119e-03,-1.302069354135957421e-03,1.208987544437895717e-02,4.060556798288101092e-04,-1.819377748223072536e-02,5.385172787145936675e-03,-7.131207873740931687e-03,2.546893081977891563e-02,8.194668815661956818e-03,-1.236138685652221798e-02,-6.954135910215645221e-03,-1.055140678423938973e-02,-1.420006606906375896e-02,-1.381905817441795963e-02,-6.313034385076549126e-03,-2.226860517998890086e-03,-1.711898693055023332e-02,1.663563105661308023e-02,3.863204878418552164e-03,-5.651766406341985141e-03,-2.316054898124122064e-03,-2.141757960894890428e-02,-9.537674987026878090e-03,6.196606653275669140e-03,-9.277446077459138019e-03,3.426618862097842097e-03,2.130243908244543877e-02,1.245409788355271961e-02,-4.512573005569004217e-03,-1.347347525472242930e-02,-1.015639056646475309e-02,-1.372470035998271838e-02,2.363476378428435928e-03,-8.358306674101769005e-04,-1.191232035019299494e-02,-6.239642052470873237e-03,6.893614770007033127e-03,8.525144526102028386e-03,1.114264559764489545e-04,1.841970935654601823e-03,8.380515819514156028e-03,1.221967485633201206e-02,-3.755175669222049224e-03,5.991708077156704740e-03,-2.711544109961141081e-03,3.278058644120084020e-03,-2.697896078800903277e-03,1.239732486708645075e-02,4.032917566857224800e-03,6.987333335544906616e-05,-1.397220404723115931e-03,1.620873628846925679e-02,4.420897732458276344e-03,-2.899910980771341223e-06,6.742664387218663159e-03,-2.264675472292091221e-02,9.151274116368873996e-04,-2.161668031018598116e-03,-8.202167446381722175e-04,-7.564269896632043119e-03,-2.484816359361605512e-03,2.771045482413658258e-03,-4.722037638775187368e-03,1.053501639956975957e-03
3.264392715925135829e-02,-4.791217646770112686e-03,-4.282494910096141215e-03,-2.294027252159698896e-02,-1.016771044078224745e-02,2.788947525810926437e-03,-9.080096377169433880e-03,-7.044137768692401410e-04,1.726617895912106737e-02,-6.337582279172196235e-03,-1.985334540145168369e-05,7.052621408701318685e-03,1.139372003632818696e-03,-1.621370088933966544e-03,-6.999552031678341404e-03,8.768492033327051315e-04,-1.959042107811248198e-02,-9.554633540910056205e-03,2.289512727633252059e-02,6.268192867112365972e-03,1.004378187011304921e-02,-1.430098734804708359e-02,7.589180106553270605e-03,4.897534435414576184e-03,8.028430624149021991e-03,1.808595824687541211e-04,-2.662216083060105036e-03,-2.025767360445860851e-02,2.507698594036671808e-02,-6.132045129079952486e-03,-1.353478041750747971e-02,1.573203938924526077e-02,1.609270373623019560e-03,-3.765431141991888589e-04,-1.583296646852851153e-02,-7.255030989367439523e-03,-6.042866558320487101e-03,5.193452708708909795e-04,1.018693621105761643e-02,8.247138714509131760e-03,-8.677804814725610660e-03,5.055334947705642998e-03,8.579765715672095906e-05,1.100874346172835486e-02,-1.601763864632489015e-02,-9.260701273094829392e-03,3.261475284764144347e-03,1.195280339508982513e-03,7.838642492642675401e-04,1.143923603024282407e-02,2.493282058710566667e-03,4.551698841328941265e-04,3.971618344054953149e-04,5.164394139518027876e-04,-1.983045661909816834e-02,8.493165041499309634e-03,-5.910417909747326358e-03,1.122629019400006589e-02,8.508467050716008243e-03,1.953022180459049184e-03,5.547295006741577612e-03,-6.633235413306576593e-04,1.433973474566074477e-02,-9.285623197183316344e-03,-4.916147933816691559e-03,-1.909112787005290066e-02,1.009573930296923071e-02,-4.227258752064402304e-03,-1.855610290422891190e-02,-1.080197863006222879e-03,1.100680036321638640e-02,9.952523436608802510e-03,-1.207544575269593919e-02,2.021411857179643279e-02,-4.894069556488664201e-04,4.813858294662450542e-03,-1.054984571917701262e-03,-1.515620984125450044e-02,6.928241319582713288e-04,-2.824937586354547836e-03,1.794109762785268264e-02,5.535042507962613378e-03,1.134401663438720266e-02,3.502528976973063191e-03,-1.901668846403341100e-03,5.632017486582793601e-03,-1.167783024086998384e-02,-7.806734171569222440e-04,3.517742667317923927e-03,1.111141602484320805e-02,1.738385631461022637e-02,6.008457035346631905e-03,1.460403641720206536e-02,-1.196488077908549122e-02,-8.349920042109354457e-03,6.249848770506065757e-03,6.476724960032724868e-03,-1.436385084350520758e-02,-1.010159835988753627e-02,-1.532699727276450432e-03
-1.494236182984459704e-02,-4.418192417311490525e-03,1.337298903148240181e-02,4.951199826335318625e-03,-6.602977304492567770e-03,5.901452212697323903e-03,-7.513437342507951235e-03,4.237814506296003723e-03,-4.695962772439008295e-03,3.325269276479206771e-03,-2.547971282105086365e-04,-2.344134849592311234e-02,3.441201722720940888e-03,-8.018886172358423783e-03,-3.111793369630830568e-03,-7.429515849882992792e-04,2.005570636212542640e-02,1.920384496524190493e-03,-7.789900491937886036e-03,4.435834696023689683e-03,-3.613045814726721042e-03,7.503378065117628955e-03,-9.985589955875191076e-03,-3.798610153029114561e-03,2.588147137640613594e-03,1.846398181450223386e-02,7.681447346112854624e-03,8.918849288558105756e-03,-1.623628425187739407e-02,-6.604567954801849120e-03,-5.192716339255156084e-03,1.580090006481217266e-02,1.962371365260221281e-02,1.126317007104824831e-02,7.812485202962429071e-03,8.424712207514551549e-03,2.984891460200003906e-03,8.536100541489130902e-03,-1.440934319201572777e-03,2.042456928009331492e-03,-6.866863043284563393e-03,-7.120428229458717478e-03,7.013826110114183311e-03,4.806223615787895594e-03,2.195944924358092173e-02,1.005219812815002015e-02,-1.341324852184108078e-03,9.069416035955795916e-03,1.212165992712960910e-02,2.360948078932405617e-03,-1.617538058612977628e-02,5.870014978941420769e-03,5.412287586953219536e-03,-5.646012787093509242e-04,1.373969592433643434e-03,-5.729750244292967400e-03,-2.288241562460324036e-02,8.008108072659431099e-04,-2.987903311454236620e-03,7.296382042091828848e-03,-1.724350227126309268e-02,-6.421054860882605478e-03,9.068197902286892834e-03,1.438901862870016306e-02,7.823362220930741955e-04,-2.352759591804571768e-03,1.562018910648282043e-02,-1.005894906765507010e-02,3.624437376899224388e-03,-1.133120153603731344e-03,1.517573401885435880e-03,-2.470121703248008907e-03,1.666134054256013632e-03,-1.056873422555204209e-03,4.647045670431028223e-03,-2.057664978646600237e-03,1.032672069472130756e-02,-9.296517462004626198e-03,-6.853738409607408599e-03,-1.122567856848924114e-02,-2.556187522337631177e-03,-8.805096104413488375e-03,2.980760182196625242e-03,-1.885780197893971791e-02,5.701566109674529800e-03,-5.008825435339282588e-03,1.003301256817888502e-02,1.430501489637743887e-02,8.828171956760529418e-03,-1.440236038287315279e-02,-1.417348060835072615e-02,-1.133734005198548667e-02,1.962653300926611288e-03,-3.476187842053129421e-03,1.434626344492477383e-02,-2.034369286427419499e-04,2.995256315772415988e-03,-2.899948693176506928e-03,2.289068225630412363e-03,-4.510935917585812659e-03
-5.520765982943144808e-03,1.337214730763238530e-03,7.048412675337385400e-03,-1.373705591151267065e-02,3.546811298314885789e-03,1.882998769331223690e-02,-1.305610377676174466e-02,-1.019308778380662028e-02,-5.852854718151461258e-03,7.005662653821332318e-03,1.818778570181870692e-04,-8.389047690835597232e-03,4.032250209920497028e-03,-2.420153547734501826e-03,2.786256768650860385e-03,-2.318034766605156808e-04,-1.099940313070154468e-02,-4.671178104728755730e-04,-2.744893478000446502e-02,4.948355908659636207e-05,4.352097639362127561e-03,-4.747371873223164146e-03,-9.766328830535771569e-03,4.553955882275835879e-03,1.469911348860091470e-02,-2.352888994986082963e-02,4.169538879360549415e-04,-8.980680317845539384e-03,3.583863127991137720e-03,-7.960040641517701632e-03,5.942359552800852325e-03,-1.225118289606018027e-02,-3.139851195915479513e-03,-1.625046802971806504e-04,3.482858373185975746e-03,3.781235507552007779e-03,2.210211991203852623e-03,1.784935856802010497e-03,2.904471893808209136e-04,4.790192239732717593e-03,1.421874196830671434e-02,6.087999993819976155e-03,-2.444830172832631113e-02,1.050581121895770298e-02,-1.463034668532980746e-02,1.643707693445345050e-02,5.981126479603564999e-03,-1.529377877276712162e-03,-1.178475097781579196e-02,4.639254508707008583e-03,-1.154888351099932382e-02,-7.301830920055187024e-03,-1.644334390455677239e-02,-5.385363165567638374e-03,-9.661955333007277852e-03,1.571873015809549870e-02,1.419140508505430630e-03,1.745075439604019214e-03,-2.554948861132894621e-03,1.557158474660914633e-03,-1.209762643690567331e-02,-1.558091982410340394e-02,-2.668293282969479846e-03,-7.964757397919213465e-04,7.007126643811068499e-03,-1.818262021630244127e-02,3.379239378891560949e-03,-2.168588379514059181e-02,8.509293843526949050e-03,5.005491443333581585e-03,-2.398348995692432817e-03,2.502079950640784343e-03,1.465328969144343713e-02,1.777385383183389608e-02,-1.186786752971535214e-02,-1.726525046619213069e-03,-8.539064424606101003e-03,-7.423282088530843044e-03,-5.571849956441101044e-03,4.985253467468188544e-03,2.695332301464828384e-02,1.498918641814091408e-02,2.410530762492409627e-03,-5.952648852513833452e-03,-4.026999126229864091e-03,-4.395461103550257591e-03,3.157379424611080326e-03,1.855813179274182515e-03,-7.933552837713568617e-03,4.409447315486616364e-03,-7.080852811945969986e-03,1.518645145594420785e-02,-2.328503853194925297e-03,2.524489736814419360e-03,-1.322346683360852218e-02,5.873595998462348075e-03,-4.758186006186662480e-03,-9.182243150317655547e-03,-9.722535976679859415e-03,2.126043496331113565e-03
-1.139729690484264472e-02,-4.547802466877437846e-03,-8.333542418392131043e-03,-1.017358099385256946e-02,-1.844054386565450792e-03,5.380381838913260092e-03,1.952205128483158400e-02,3.862850537242369653e-03,9.567547937637432137e-03,2.220582292207036804e-03,7.327478472824461124e-03,5.511070161200538886e-03,1.030277481730917759e-02,-7.623366686164189179e-03,5.916119164141649990e-03,-3.861190340291021077e-03,-9.931573943415131570e-03,2.194971228915638603e-02,7.251709533507244738e-03,-2.587234408453248542e-03,1.830627623557217962e-02,1.124750389491025425e-02,3.871603707984982642e-03,-9.454889821002898653e-03,2.151956907872499755e-02,-9.957674171386104653e-03,1.196307167119540008e-02,1.189169333286325438e-02,-9.984396940051069522e-03,2.302720529506415998e-03,3.773819463985802775e-03,1.674850624258836240e-02,1.091532689408251759e-02,1.104246309005380705e-02,-1.126627974810173738e-02,1.700989361342859080e-02,-6.682294722497704974e-03,-7.159516493536129166e-04,3.777037551136366595e-03,6.890172702564532556e-03,-4.703112609557896090e-03,-1.256647695189924696e-02,-8.912841461752652947e-03,-9.052614794665682710e-03,-5.066508948649073090e-04,-1.523408495642813130e-02,1.137746154197275331e-02,5.685303206481862916e-03,1.197635208879243088e-02,-3.094537400536139481e-03,4.891115571738117486e-03,6.595342440197100690e-03,1.957690184530307478e-02,4.137937837961666587e-03,8.156551694416286358e-03,-4.307440026551765180e-03,-2.232046608069264415e-02,8.199184396409750497e-03,1.198726381394357894e-02,-4.546117085077582692e-03,-5.354386121587217766e-03,-4.352947985202631521e-03,9.729018635117272010e-03,-1.781546011869649532e-03,1.586663289068383580e-04,-4.449151156912064219e-03,-1.895480258451561970e-02,-2.073953638071371255e-03,2.173540810678840571e-02,-8.142464684365951361e-03,-1.231005107990271359e-02,-2.652729009712207538e-03,1.470548076153911535e-04,-9.198336577828911120e-03,-3.365859771519069243e-03,3.666363997159883918e-03,1.032490503627303330e-03,-5.518361041446086419e-03,-1.758579521958617518e-03,-1.549522969812622449e-02,-1.490397224048220807e-03,-3.389728062808189911e-03,1.080291356022111465e-03,-7.320072981554768404e-03,1.959790513007025198e-02,-8.393881557546012135e-04,7.580911593668717124e-04,-1.622783645912009159e-02,3.886353491238108727e-03,5.835710218919066064e-03,-9.836615540852477330e-03,-5.263544379051996597e-03,-5.347745856927249748e-03,1.134692598651267266e-02,-1.731746222013639397e-02,-3.038509155545204322e-03,9.541745194072720482e-03,1.420151977736936431e-02,-1.091874543575058545e-02,1.319383144289035421e-02
-1.023495307981844675e-02,-7.308859667056971199e-05,-5.536944346897701777e-03,-7.510045644311928378e-03,-2.305311471793252548e-02,1.362760965207416436e-02,1.151690909601866229e-02,-1.119664743492176755e-02,5.746135436602034345e-03,-5.721982675021369119e-03,7.260015298926842352e-03,-6.478547641744544089e-03,1.597143772337106596e-02,-3.737473949697127634e-03,-1.353747414742917897e-02,4.014672552294562893e-03,-5.792470154015816677e-03,-5.579772965857932032e-03,7.978657765343385999e-04,1.174485154759315544e-02,2.025476057101508864e-03,-1.090845885413915535e-04,-5.988662653308761755e-03,2.057083757283243233e-02,1.428076798704096045e-03,1.226139554138033771e-02,-1.305720043884621775e-02,-1.344146894806375536e-03,-8.962502311689860349e-03,-2.762791379933710479e-03,2.716516872939058694e-03,1.851297326588361228e-02,-3.610637074432031159e-03,3.265311019178838980e-03,6.069106164872477976e-03,6.816541418384653057e-04,-1.184835189389753848e-03,-1.888289624366918436e-03,-1.424730275435078658e-02,4.696993263845201765e-03,-7.709440359636805275e-03,-8.665668352430251718e-04,-2.317429241362857842e-02,-2.570557170741939908e-03,2.074318910505907818e-02,1.428761556403748342e-02,-5.163931408626499901e-03,1.439994086103808975e-02,3.402616824996821526e-03,-5.989534073623673481e-03,-8.029841420662361950e-03,-6.681496786403158181e-03,3.990181156698092632e-03,-9.009654958061502281e-03,-1.825375415975138277e-02,-1.789561164552597953e-03,1.162086725916142409e-03,9.960537224868635207e-04,7.359930583435393518e-03,-7.849347824148988212e-03,5.974538560902396735e-04,7.043389320472316813e-03,-5.287413843728354899e-03,-1.044491160424449762e-02,-4.512659291653820480e-03,5.838625345343279212e-03,1.956217175226450389e-02,-8.246455128159951159e-04,-1.083813390411278964e-02,1.415906391257830930e-02,-9.824732185972649690e-03,-2.088996131293553368e-03,-1.543580839134232018e-02,-9.217803669573513062e-03,-7.136409908565814406e-03,-2.482133405148164232e-03,5.188252558821223638e-03,-1.678446333465199655e-02,1.065398775245171396e-02,4.503549887392061662e-03,-1.448756981434669126e-02,-3.850390239828401472e-03,-6.875629195233241321e-03,8.108888753745114794e-03,-2.935410492684994098e-04,1.798840552515850680e-03,-1.476964606548129486e-02,-1.363365707810170954e-02,-4.753017938114366576e-03,-7.278649591947297486e-03,1.113162920022211545e-02,-5.953292285990094239e-03,5.228744016058697354e-03,4.433518015796829997e-03,2.234102087394797612e-02,-1.118177818143093567e-03,1.034041666800569401e-02,-8.321188761027335096e-03,3.127870723055181310e-03,-7.588842526021984808e-03
-1.177542124904516936e-02,2.022871523045712688e-02,-4.304661085497374579e-04,6.276474882664970396e-03,2.447361475246254137e-03,1.737530350085318004e-02,5.997052558810068643e-03,-7.504725127297323358e-04,-7.867444613253046781e-03,5.323860272721425875e-03,-6.132694138125067973e-03,3.475728718649454593e-03,1.174362790547663418e-02,1.461826505928152595e-02,-3.991238144564861201e-03,5.774842841089732233e-03,8.631643350513562227e-03,-1.409105484474765767e-02,8.305540364044365707e-05,4.219446694945776233e-03,8.615706632745576523e-04,-6.675348119127129387e-03,1.768056751515110006e-02,-5.531573817870485445e-03,3.504601613462261767e-04,2.717564999215662039e-03,1.225310820415212790e-02,1.214624845899203373e-02,2.104923674954501528e-02,-1.738823958503261588e-02,1.241320310339859810e-02,8.971480256825878699e-03,-1.567470532510428826e-03,-6.061752410823776152e-03,-1.111504495045242610e-02,-1.876544817522638516e-03,-2.070144541636865024e-03,-4.380740715861076301e-03,-5.184362026166499174e-03,5.112113524577244217e-03,1.484090771796281114e-02,3.280245632978447861e-04,1.275478536455187375e-03,-9.915306973479430779e-04,3.593021989725479152e-03,3.425022660170047323e-03,-1.347600195037457899e-02,-1.334462304951919420e-02,4.367884970482292448e-03,1.755179135441936253e-02,1.332891765901092138e-02,-3.186139847889056216e-04,1.102004495495078826e-02,8.365348108367075611e-03,1.715038788431199474e-02,1.345336187927380356e-02,-1.246683636854721902e-02,-5.399714593967749453e-04,2.461247764467635463e-02,-6.737981387293644729e-03,5.954008181842254145e-03,1.894694748568396744e-02,-3.975374627547032837e-03,-3.295208596799927177e-03,3.428622508813856939e-02,8.031548685087985806e-03,-2.137710551947940435e-02,-7.878922113991744872e-03,-2.640582356281845431e-03,-1.707573404490519411e-03,-1.114928081861910102e-03,2.460100062829663568e-03,4.799124144076069749e-03,1.043947529913494786e-02,4.673709783976348967e-03,-1.240738828103457592e-02,2.994628162461218657e-02,-9.335133715901906132e-03,1.102093713729165869e-02,1.709616798343106857e-03,-1.355581123389228149e-02,1.066688050018579394e-02,1.102033040000455514e-03,1.178430133565827945e-03,1.116330475541555192e-02,1.050999792435645432e-02,3.434813665228421495e-03,-2.070964799375031671e-03,1.000805969243291106e-02,-1.649911249622412410e-02,-1.867469241418956774e-02,-1.488555835826380763e-02,7.528591183448000122e-03,-9.058829224230766780e-03,3.797386926359553553e-03,2.535149055280875034e-04,4.832881579482050695e-03,1.929859190841175937e-02,-5.269644126529305674e-03,-1.230593437982771370e-02
5.841658474015705600e-03,-7.211607145701570687e-03,1.457908079563573905e-02,1.186937645505892203e-02,-8.118788440040432958e-03,3.290405099357703641e-03,5.200851379039861389e-03,8.135985821168001744e-03,1.169101759737030920e-02,-7.733884950458578926e-03,-3.823073752929219155e-03,-7.650566491719289555e-04,-9.863207457007484510e-03,9.315478788588476937e-04,-1.036235934907200722e-02,3.332570748841995334e-03,-1.131515401789596423e-03,2.428563663474461471e-03,-2.450451208042902368e-02,2.456536433865820924e-03,7.097659241209883750e-03,1.770568594584146643e-02,-1.085964476232322007e-02,-2.620301833505281298e-04,-1.258588552446923518e-02,8.880317160648463701e-03,1.467238626013395338e-02,-1.407556465736049085e-04,-1.052806671357229412e-02,5.749396425060564371e-03,6.645282032534853903e-03,2.450496603393985742e-03,7.895538784994706946e-03,8.801615572222979550e-03,1.321034514275242280e-02,5.443786930214395033e-03,-4.487485953855858273e-03,-2.165540162403706888e-03,3.599888487437751059e-03,-5.409501887034096068e-03,7.606378451636429438e-04,-1.243469218056943854e-02,9.342496473569859156e-03,4.819526312679053848e-03,4.554105758255896572e-03,5.293693726950340558e-03,1.097126518189913422e-03,6.682773620383949432e-03,-1.775040153902842852e-02,-1.715113221895059673e-02,-1.320002987917564923e-02,-2.223550881736520522e-03,7.037046364720961691e-03,-2.246076859065688439e-03,2.901359406858437621e-03,-7.971129467336336705e-03,6.921790190292780379e-03,-5.726366912471535491e-04,4.924854530617679780e-04,-8.249911287397715398e-03,-9.804078185257551412e-03,-1.274986340883330765e-02,-2.354623175098292942e-02,1.008180168856920994e-02,-6.003667013743921657e-03,1.015596248130797366e-02,-3.977334198220201442e-03,2.073250742931204843e-02,-6.447438071260083552e-03,-2.391447604087267031e-02,3.467758715890560412e-03,1.219751093427858847e-02,-1.506251123310184403e-02,1.538603682777997007e-02,-5.037451663509295331e-03,-9.359889523302251935e-03,1.275818759760042123e-02,-7.555100858781134236e-03,-9.744585757465761607e-04,-8.278364224622757755e-03,-1.395028711670473487e-02,2.898954966255703949e-04,-1.575125786276283454e-02,-8.868456325803056664e-03,1.514040304735793721e-02,-5.268835708858902490e-03,-1.497155243393240298e-02,8.205479226984920341e-03,-4.899287394758272511e-03,-4.385577581689013675e-03,-7.698927318132796523e-03,9.114610869360476389e-03,1.529546903571169826e-02,-8.876595723640664029e-03,-1.368016046060526077e-02,5.729069736866058450e-03,5.803967788626645044e-03,-1.683071018381191580e-02,-2.594607240151735380e-03,7.374117889786088037e-03
-1.358429072087391498e-02,-5.131520540861683223e-03,9.759330920661470760e-03,-1.878317677781029225e-03,-4.763820296008286666e-03,3.131324780301805374e-03,-6.253293730586265142e-03,1.274051980695917012e-02,9.075030713687011821e-03,-2.037364998113332711e-03,-4.959683713458208631e-03,2.521958110240587417e-03,1.323513495530016272e-02,-6.730755147007295817e-03,1.514556611730493753e-02,-1.592424806320400649e-02,2.042503535375466903e-02,-1.823145042052149931e-02,1.881834741975324174e-02,6.855218264989831022e-03,-7.834758497156455587e-04,-1.430351294912883195e-02,-6.938082719958169400e-03,-1.034654185887625560e-02,4.426131855960926953e-03,1.219852630964778431e-02,1.346875454324346355e-03,-4.015151594411212423e-04,-1.261042826231228466e-02,6.556243913531383145e-03,6.266578913907866998e-03,5.781225163150719576e-03,-9.009181339023892079e-03,9.521332426262060777e-03,-1.698501621921237256e-02,-5.864736746544075424e-04,2.890647450392221009e-03,3.615374691248358658e-03,-4.011110601386484037e-03,-3.509670604441891828e-03,1.318245426694335601e-02,-9.543888775882931191e-03,3.180397212576410639e-03,-1.227108470316920844e-02,2.845754695761906761e-02,1.537544089506043266e-02,1.681420632295232758e-03,-2.608236788842996368e-02,-1.545634658916067092e-02,-3.938408316207732754e-03,8.444632914073669713e-03,5.768575291692638538e-03,6.968685819918118279e-03,-1.068095800867498862e-02,-6.914316324366722930e-03,1.145767598498318232e-02,9.797851656951532887e-03,6.389099095293369196e-03,1.229013917267121571e-03,1.368940151861601333e-02,3.365388042094776856e-03,-2.793660381701440314e-03,-2.269100946752449464e-03,-2.029969122147843447e-03,-1.412491005955239694e-02,5.895785612255599259e-03,4.407585272881901425e-03,-9.154845837478822398e-03,-3.266799590389033153e-03,6.713722217564898481e-03,-5.992504183817814464e-05,4.315163376567311519e-03,1.146172940077702651e-02,1.041625816537562060e-02,3.985904293377353844e-03,1.016895588562428086e-02,2.675186469357671015e-02,1.297876462735320265e-02,-5.085191655774787094e-03,-2.222560591063080042e-04,1.134118379519822792e-02,-8.252613409359874780e-03,3.422682005508070370e-03,1.437970803573493557e-02,-1.596795203807081787e-02,-1.729193249909565661e-02,2.924720983195536281e-03,-1.673750306345246630e-02,7.420147064591451312e-03,-6.202434329762130522e-03,8.818977200828633650e-03,7.499275879869911864e-03,-1.173810488970154081e-02,1.849057003930259374e-02,5.708267813606097800e-03,-1.917186858534631385e-03,-8.504414000275932126e-03,-4.208018728394885208e-03,1.045795823317084011e-02,-4.692272210618585009e-03
2.395555843583010904e-03,-6.737332986502817325e-03,6.698296568846623736e-03,-6.477034755540220234e-03,-5.436230228740420931e-03,1.551026674821130887e-03,-9.019450050159853738e-03,-1.143425367758339750e-02,-1.589521204430096972e-03,9.801621537035657208e-03,5.780754934520466147e-03,-1.965680500964818792e-02,2.055768505548915583e-03,-2.206271741899596198e-02,-1.632976244137131563e-02,4.966167132204059829e-03,3.037269443226635508e-03,-1.000711711849921505e-02,-7.595724147926711557e-03,1.858466567014487904e-04,-6.512439595113977270e-03,1.382624886306951968e-02,-1.820820627512208245e-02,1.629516502676246455e-03,4.894453470851711785e-03,-1.177885589557338755e-02,-6.220831169454787458e-03,-1.132270559410508172e-02,9.729626852458568911e-03,1.619391272211369998e-02,2.042040606370176814e-02,2.186226141627222743e-04,1.975794585838438425e-03,-4.560088497739934674e-03,-3.016600906766329915e-02,-4.514971900854419275e-03,-7.814518590590518662e-03,-2.395178913296919579e-02,9.258815454079472040e-03,1.067699348263432494e-03,6.079910487666945022e-03,1.682681021172097516e-02,6.683961418411881947e-03,-2.643633039507651758e-03,6.786305026921715146e-03,5.349041537900349821e-03,5.905862321362391996e-03,6.402312714383857038e-03,7.741513524513440707e-03,-4.025445125487241800e-04,-1.179257011286613099e-03,6.097420869530188400e-03,-9.759178390782309153e-04,-7.385230129970449774e-03,8.822165191000777562e-03,9.324730869871731762e-03,-3.260193423683564132e-03,-1.857262369972178737e-02,1.619220657639482489e-02,-7.101623704657175108e-03,4.555040808713565516e-03,-1.102686714718660067e-02,2.062425880060007616e-03,4.171537952818551824e-03,-1.562038813218586883e-02,-5.960751718949181682e-04,1.513692587833898604e-03,2.331626541288497802e-03,5.669514610419066486e-03,-1.234015601502026598e-02,7.819052609201369852e-03,-9.712489537573329099e-03,2.137595263765744436e-02,6.177897543013752789e-03,6.377571994717792792e-03,3.956957255340974589e-03,1.146373177799545236e-02,6.532633599443110964e-03,1.831758538466181970e-03,-1.163878810271996161e-02,-2.507953345824252313e-03,3.940810663456678804e-03,-2.116182973258788483e-04,3.511892593533539556e-03,5.220488971591000921e-03,1.558063789410861271e-03,-1.449738673434311335e-02,1.086164534229378843e-02,-7.136429392630035378e-04,-9.637127368452328216e-03,7.918436925297393444e-03,-4.072631795542830564e-03,2.051655173499467022e-02,-1.971645887550837334e-02,9.151425572469903871e-04,-3.542938064724164646e-03,-1.615539036829766488e-03,-1.029971350595607592e-02,1.852887921544491348e-02,2.284493256030896771e-02
2.594908792283173900e-03,2.486477884823737241e-03,4.243573731756052070e-03,1.775212833275177995e-02,-8.121607469055524761e-03,-1.692626639288634730e-02,-9.129609976887611070e-03,7.369963380432042847e-03,-5.561734920785402171e-04,1.084550178671354285e-03,-2.324760708531224337e-02,-1.698357134117054054e-04,-1.585915526130051573e-02,3.710017393711101830e-03,7.893967545256065990e-03,-6.088462038286166986e-03,-1.152913776256062235e-02,-4.423383336831328803e-03,1.000877852864223878e-02,-6.986628096648754040e-03,-2.016219993854473022e-02,7.291498404548446164e-04,-8.474522026379752507e-03,1.013523750530571400e-02,-3.763022208414768064e-03,-1.185006512444675662e-02,1.860177502033049648e-03,-9.409686167122680717e-03,2.415172933554491502e-02,-9.514505009468529617e-03,-6.258819153068577933e-05,6.806454391108733050e-03,-9.116378455939952094e-03,1.142002705082260754e-02,-1.650174868782001980e-02,1.509108814524627975e-03,-1.333951406000096623e-02,-1.002025146880851890e-02,-2.467820977129068973e-03,1.841957257646116217e-02,-1.767760051819650818e-02,-1.264130218789555164e-02,2.031035773762233584e-02,1.426607985517815320e-02,-9.991803721067697361e-03,3.799001442179537110e-03,3.831942602491656899e-03,3.311499279582521063e-03,1.502260745530293456e-02,-4.566654733170599605e-03,-4.807220440131024577e-03,-5.983222368082776778e-03,-2.110401352327862662e-03,1.572824112184408908e-03,3.258395086286166448e-03,2.100244533634377381e-03,1.494007080850482229e-03,6.182490630964035047e-03,1.064406008724752637e-03,1.325578975999001582e-02,-9.810393787988501424e-03,-1.665142559387787144e-02,3.542483856332781511e-03,-4.689896440294110021e-03,-5.835899073214780887e-03,1.625839136166590607e-02,-4.131131827460521669e-03,7.753853207304471119e-03,9.924045705865806172e-03,-2.983216526341813789e-03,3.210905842866971973e-03,3.018403450675315441e-03,7.819901843872750086e-03,-1.290360852938688373e-02,2.624175988102970397e-02,4.971658786796868436e-03,1.345917902546591924e-02,-1.348706292438211704e-02,1.347822404002641840e-02,1.989266210870086968e-02,6.524916624452601135e-03,-9.676575570830665482e-03,7.387931926003142580e-03,-4.003155097820251460e-03,5.584996204505266078e-03,9.221392023210503094e-03,-7.921516952405430537e-03,2.962146051419684619e-03,-3.568878403768343567e-03,1.230783679621835942e-02,8.154123121789124892e-03,9.545891898888736807e-03,-9.779262837746853163e-03,-1.537370701476675761e-02,3.076341890491096024e-03,6.896578467478787014e-03,2.954953501147574140e-03,4.838994923437902316e-04,3.987926669738179990e-03,1.645085377832908313e-02
-4.611301056736186871e-03,-9.717551241076984384e-03,4.765890269077795692e-03,-7.844838277765444137e-03,-1.607004052735952482e-02,4.621742213087223945e-03,-2.572398622033614246e-02,-2.813878232044958461e-03,-6.663722855255991423e-03,3.334063197431286988e-03,4.106166018377169213e-03,2.382135730606264358e-04,-1.303725032231570430e-03,-5.141416679634358555e-03,-1.109787953976556704e-02,-4.950370532251471140e-03,1.093286290651692728e-02,2.128205303672248139e-02,-6.047386991112500311e-03,-6.595018134389768645e-03,-1.300978635157450884e-03,6.913788178884165865e-03,3.677690095646569263e-02,-8.314251364312382278e-03,2.051633733855899588e-02,-8.743831487765625285e-03,-1.097727331970735701e-02,-1.170656683685571652e-02,-3.411847622471861786e-03,9.825000361163850962e-03,1.606673436644436362e-02,9.182341641101101140e-03,5.524614273786403879e-03,2.329635717704943692e-03,7.963705999601373639e-03,-7.070083215079975107e-03,-1.297966641028666136e-02,-1.609229838859092820e-02,2.027683116106773764e-02,1.317712872216410432e-02,3.710438820717154758e-03,-4.740340246106323693e-03,-1.006964774735135196e-02,-1.381353340714785126e-02,2.680328479494586014e-03,3.795727471682655216e-03,-7.041945211423117704e-03,-7.614763023190493883e-03,8.506648272478496697e-03,2.659266716106068081e-03,-6.756412499726490058e-03,1.573326709278555268e-03,1.451973312580580322e-02,1.051698105086658558e-03,-2.330968566911119366e-02,7.170824389465102651e-03,-1.209093042086059090e-02,1.743885939451076533e-02,-1.988390859202214533e-02,-1.516786762068237336e-02,-1.413790394084013698e-02,5.431661688420725762e-03,2.963584620022754936e-03,-8.769903382543561832e-03,-3.261517377395215574e-03,-1.451189091220748376e-04,9.376918547614203694e-03,1.005208726309228095e-03,2.388326650274621987e-02,9.399213423928888533e-03,9.321155015875810454e-03,-1.572199305912302600e-02,-1.044700631599591173e-03,7.599696443289370891e-03,-8.309584364880759355e-03,2.059403513195223745e-03,-6.647868564788788140e-03,2.379663965085067334e-02,5.878675832196787916e-03,-5.848382865450362476e-04,-5.084999514556753746e-03,8.434915045604516118e-03,-3.615196258309692420e-03,-5.501515045470036815e-03,-1.166046259424765447e-02,-8.691290909626638722e-03,5.636303857388584126e-05,-7.814380758938858917e-03,1.715410282618889991e-03,-1.087589908863578585e-02,-3.599435814656978816e-03,2.104600641897394486e-02,-3.243815601539225268e-03,-1.072679287492443690e-03,-8.190039519031130227e-03,-3.067999572963935918e-03,9.752927908084525754e-03,-4.050442125073159638e-04,1.125210284301727528e-03,1.007055714832160408e-02
8.446393297739020894e-03,9.597864794702747407e-03,-6.368208509198915873e-03,-6.740149305538357602e-03,-4.186118236291416946e-03,-3.394801303583926903e-03,4.479603369604188805e-03,1.938495687837330861e-03,-5.584379990814682245e-04,1.633754483894018020e-02,-2.358529541794030307e-02,7.439920489320902414e-03,-1.673600057433083377e-02,9.696620606824841657e-03,-1.093674583048884338e-03,-1.599295069330508232e-02,1.106942801522912360e-03,-2.581647254816974118e-04,1.336524612212108484e-02,-2.167571072605115577e-03,-1.349282957727307788e-02,-3.484265343489016589e-03,9.769675222938645209e-03,-1.053266916969973835e-02,-7.746275107331234561e-03,-5.095853002922998663e-03,2.043799695664648419e-02,2.473941034296743731e-03,3.574552580357699336e-03,1.914916018930439695e-02,8.184984366421965002e-03,-7.520679218655726937e-03,-7.683074973549502973e-03,6.805794863689079884e-03,1.923426164995553286e-02,1.591474883374410787e-02,5.987147501827725163e-03,2.511891358603513241e-03,-1.448813883966247260e-02,1.473868457975185953e-02,6.998292739245690411e-03,1.063395093947920415e-02,-1.171797154097845364e-02,4.437901165583630313e-03,-4.239763768669200898e-03,-1.533789853215528250e-02,-4.820153393645393823e-03,1.912583487328122292e-02,-3.396892471640902862e-03,2.939436994952973874e-03,5.287684401658844166e-03,1.780488498845279877e-02,1.423752492538468174e-02,8.971991543446545050e-03,-1.178931634428525069e-02,1.312827252205521489e-02,6.394304631375967961e-03,1.550411891192692709e-02,1.829476308805330284e-03,-3.321682004070983848e-03,1.661696306806504167e-02,-1.431483327250788161e-02,-1.692520558459119015e-02,-8.617675320336238426e-03,-1.417081314284809705e-03,-1.433806097160306636e-03,-3.371858192502751733e-03,-1.393928865599387661e-02,4.027791050931875221e-03,1.000987575483506045e-02,-3.915293253531360214e-03,-2.343395565190261459e-02,7.352687766114429820e-03,1.822494444899545396e-03,-1.217850459412715171e-02,-3.739102400181050848e-04,7.284225704108989070e-03,7.384845355917063307e-03,1.838845106134060631e-02,-1.999654792970960784e-02,9.421716599261666450e-03,2.497366328938169233e-03,1.003827780108284282e-03,-5.334411863559985513e-03,-1.288420054548631948e-02,4.142056211756640839e-04,1.571685270378751081e-02,-1.456301874138611499e-04,-2.499198587891015601e-03,-3.543838112311532146e-03,-3.924106756084414817e-03,-2.524750121493830055e-04,-4.736523869671418509e-03,-2.279470509441716003e-02,-3.733191196551607742e-04,-5.592775555252705276e-03,-1.651886229856338456e-02,-1.016711869319223381e-02,-2.409813331073305939e-04,-2.866366682614445403e-03
-4.393640694621018562e-03,-1.278550588081529046e-03,-8.808588792505539500e-03,-1.376719750699639594e-03,2.221237207336983557e-03,1.725876425465338801e-02,2.390958900585207422e-03,6.847057984308222746e-03,1.061258987488782404e-02,5.532303452367762740e-03,-3.899045519325596270e-03,-5.520866015099414048e-03,9.964580777126585964e-03,2.376968931804614995e-04,-1.455773799551860273e-02,-4.788221547664770796e-03,-3.969759861878632487e-03,4.783428527810021542e-03,8.871000758694113156e-03,-1.132206440629650659e-02,-1.174069267279737212e-02,-1.682324564031150924e-02,-2.006113316916327896e-02,-2.011316402721946475e-03,-3.699078608617836859e-03,5.094025403051617544e-03,-3.541851889605643431e-03,-3.553777900794547612e-03,-6.099528636404777729e-03,8.401970694701530601e-03,1.033131235277690192e-02,1.389970681149703619e-03,-1.230293548943477144e-02,3.347509892749681720e-03,-2.774195825514592581e-02,1.031726337439560406e-03,3.077633112080647906e-03,4.497390427967143910e-03,-5.496020475854449493e-03,-1.181941743964481754e-02,3.384285969330917514e-03,1.062250357292762390e-02,-2.299564671351614353e-02,1.075218025440765300e-02,2.107634070738530555e-02,-2.346618469769081242e-02,8.792170272423649804e-03,-5.512653297168190617e-04,-2.280571395928788353e-03,6.901450216859631760e-03,-1.757124466424340656e-02,2.203142457730029521e-02,9.494750339226795677e-03,-7.274892952949504714e-03,4.810067326009138423e-03,-8.548776265642502037e-03,4.041559089769851398e-03,-5.611704199641245720e-03,-5.059530623034855928e-03,-9.861673261716066841e-04,-1.361657806147027923e-02,6.498844569109306704e-03,-4.110112483629781155e-03,-3.846201971176213281e-03,-9.752206503556827555e-03,-3.518132145146578987e-03,7.458902378358802515e-03,1.579542256933599842e-02,-1.016306949021761850e-02,6.909815439536804230e-03,-3.357211457605899924e-03,1.039521316485658708e-02,2.514656426463687811e-03,7.697677487811411916e-03,1.788378008153795190e-02,-1.233912474433843760e-03,9.817101181134425120e-03,5.192306835176131209e-03,-9.618289949241775813e-03,1.708627831318409312e-02,6.567509708291559972e-03,1.154722184488826339e-02,2.866577978404802850e-03,1.062077171421126065e-02,9.915985152679069464e-03,1.599243427811600574e-02,-8.508397586688932687e-03,-6.740840325646425303e-03,3.244127194552877576e-03,-2.051090064561894924e-02,5.630765043251567507e-03,-1.084619382619872105e-02,-1.276911244593889258e-02,-7.538343773733561029e-03,-1.829099603181600633e-03,-1.147326848969692191e-02,-1.792131360241165650e-02,-9.298330487219735527e-03,3.843250764005515414e-03,5.942537566436267155e-03
5.022238949830862232e-04,5.962613697374940201e-03,-7.240695065471733187e-03,2.408999053552849517e-02,-9.446296042975461590e-03,-3.361391469270863519e-03,-1.985534528600378483e-04,-1.152702094139833669e-02,-1.007578916698265679e-02,-4.290208510320837020e-03,-2.777453268363245728e-03,1.148805432794537153e-02,-3.161709286067084478e-03,7.260314615674092788e-03,-1.802803551630023302e-03,1.100541059192697421e-03,-1.970872824309919530e-02,-2.876967475219623441e-03,9.363219178530085562e-03,-1.481267654322844865e-02,2.343357127022291028e-02,-3.048445869432790840e-03,-4.031930454637936865e-04,1.182417886838854799e-02,-6.453918478598615928e-03,1.524806668356765843e-02,1.631024773585564491e-04,-5.950487386280066057e-03,-1.429299951805313752e-02,8.875914584594269199e-03,7.557700267810142647e-03,4.397186732989707102e-03,1.298078726359596334e-02,6.097716979335311184e-03,2.206459451925606857e-02,8.476901042710236563e-05,9.741967106874227164e-03,-9.740894321983790049e-04,7.044108833925389127e-03,-1.356291640940714659e-02,-7.687699865325240377e-03,-2.234339194725104647e-03,-5.489962944087159935e-04,-4.776289367854861558e-03,-1.056595353114733217e-02,6.846847192488612378e-03,3.353310896083420327e-04,9.994198915192686536e-03,-4.097375718947652602e-03,2.875855620349082511e-03,-1.183380351551493320e-02,-7.677550542396603542e-04,6.209227344985543927e-03,1.442848621692889577e-02,-1.187976347576020358e-02,1.158942453162368873e-02,-7.597360279367000504e-04,1.400779978943454684e-02,-1.001126972374802478e-02,4.992030432599113381e-03,-2.574731818813108530e-02,-6.496606342169788419e-03,-2.929232441756887944e-03,8.668259994894036286e-03,4.304340255629215961e-03,1.299447763728677277e-02,-1.090126405925239197e-02,9.301812358955366747e-03,3.099978185723859339e-04,8.577122041109139922e-03,5.408005597031091682e-03,9.674441657029721198e-03,-3.704055949647615687e-03,1.977533324661688661e-03,1.387501602448947251e-03,4.619011106661174808e-03,-8.663339735446251794e-04,-5.692041255294344156e-04,-1.284010606595580722e-02,6.096834689990861733e-04,-2.270753021673626356e-03,4.402063712950877485e-03,1.154919589334168183e-02,-1.219082936402425543e-02,1.889481810206862901e-03,-2.238650212182876492e-02,-9.623953018791155459e-03,2.698265397484553990e-03,6.657712944727939633e-03,5.403197959822551508e-03,-3.003937044790123793e-03,-6.809022067200281333e-05,-2.151771694752189698e-02,4.307978749618105938e-03,6.712324003089576753e-03,6.013189255801422092e-03,-1.247398050469414842e-02,-1.027647428951367764e-02,-1.823998801259339546e-03,-7.999669724291496187e-04
-5.590101597658609332e-03,-1.236748969667535517e-02,-1.263231540127153843e-02,-6.131658077676961117e-03,4.224722311291133695e-03,-3.187678450175009462e-03,-2.881524364049977555e-03,6.944482081579363142e-03,6.298975577310440832e-03,-5.808165901310878912e-03,-1.724307237030449705e-02,5.714248574127702741e-03,-3.998067987198998009e-03,9.728453523445107325e-04,-9.347223432741458976e-03,9.321067512565294616e-03,-1.308436573092240131e-02,-6.352658965391689942e-03,6.839852202779990280e-03,-1.497636162374624269e-02,-7.510369391859335157e-03,1.056969207379455239e-02,-9.742686517877305677e-03,-2.717823314717120707e-03,-9.347839591867398989e-03,-1.396741016180324049e-02,1.147528753802052985e-02,1.080542321293164690e-03,2.054503069505491178e-02,-9.517276369729481267e-03,-3.634057178298026949e-03,1.530073971606530324e-02,1.089390058771617757e-02,2.289771857309440793e-03,-8.121007554752453846e-05,-1.529317080203013157e-02,-1.952202064745678324e-03,-1.791971359429890207e-02,8.707651001459499468e-03,-6.761096997914030349e-04,9.389591248231930753e-04,7.602756645610468308e-03,2.987784038747234644e-04,3.769791029259381143e-04,-5.253685540348441464e-03,5.354939433437740093e-03,-1.993516291304956584e-02,-1.344839800318302749e-03,1.292418218369908306e-02,-7.183877477296783665e-03,-7.808731038602786945e-03,-6.422875290958131485e-03,-9.848185773830696321e-03,-1.541882836288845961e-03,6.247650206467260815e-04,1.140882738586701528e-04,1.731058266215167694e-03,-6.386677646224833737e-04,-3.684334746595293447e-03,-1.553611430955436495e-02,4.391225913014815997e-03,-5.871706129307564196e-04,-7.050597039357293927e-03,1.777987180579783735e-02,1.050074673579293703e-02,7.887600094586487767e-03,8.454398410756059495e-03,-9.684330266243572002e-03,2.228203512215783891e-03,3.043290353376094590e-03,8.156823567354863289e-03,1.041993824893540713e-02,-1.496786094271315877e-02,6.367924175991225566e-03,2.944793860351176823e-03,-4.066031949545793889e-03,1.258283804560612722e-02,1.496555557494388088e-02,-7.595990083629560255e-03,1.548072464810459209e-02,-1.252814108599447328e-02,4.155325982595809917e-03,2.629039547359071811e-03,-3.994455302032011434e-03,3.491854125748629790e-03,-2.040110608301993339e-03,4.769379852223526797e-03,-1.557538898581780490e-02,1.536202917446912678e-03,9.337205952694754146e-03,-4.090032637393802711e-02,1.887709429932864225e-02,-1.698559697079907508e-04,1.041945570077257386e-03,1.752864913466074944e-03,-2.814597501778340512e-03,1.502670608932781329e-02,3.559026080629912434e-04,3.761484543028619735e-03,6.670782631123324709e-03
-2.923241281567414904e-02,-2.355039877669969431e-02,-1.108757689711887921e-02,8.663573746999416250e-03,-6.543580786487673828e-03,2.085636889378616327e-02,1.640595369073908055e-03,-6.564209729207657468e-03,2.040765010245306973e-02,5.681525351919729239e-03,-2.160147749818860929e-02,-9.893508634218005013e-03,1.270985972001559099e-02,1.996595229450711176e-02,2.468861713497724156e-03,1.659324477822306937e-02,-6.873522713879067804e-03,-8.380585560360620176e-03,6.463217465505392313e-03,3.021615215821258933e-03,3.708873044470627385e-03,4.278976922937704867e-03,-8.142513419945205874e-03,-2.600519297988272433e-03,1.092902268674608365e-02,-1.127827973582880977e-02,2.789146454160742160e-03,6.327604866977737559e-03,-1.965646354057506984e-02,-7.783940900172772737e-03,8.591454129612948951e-03,1.533670629453364950e-02,-8.854592104066484268e-03,4.761656635265136030e-03,5.684840241168281775e-04,2.849131003898290517e-03,3.551374558586777356e-04,5.601785564196376868e-03,1.587204408432681471e-02,2.584496563500855606e-04,-5.582146605443156183e-03,6.927450656945520480e-03,2.234046383300932175e-03,6.091308995664140684e-03,-4.546267476286997358e-03,9.848647088713110079e-03,-5.582083280314948173e-03,-8.715733662592666312e-03,1.069080991933621556e-02,2.521238495198145808e-03,-9.348820253937743102e-03,1.258057782290848171e-02,1.237585730370773830e-02,1.430236821753862533e-02,2.129713844016525859e-02,6.555628722283603346e-04,-7.283945647760380060e-03,-1.043472319539154487e-02,-7.489950387706268938e-05,1.021508137170618231e-02,3.255466629341878353e-03,4.190641157983199597e-04,-9.010196008457725669e-03,2.540726156965305085e-02,-7.856049101226204867e-03,1.974520173014372021e-02,5.206317714099710807e-04,-1.576217133182627236e-03,4.730039000174320746e-03,-8.450951822672780542e-03,1.320036578757173389e-02,1.712619678609506382e-02,-1.134909755644312665e-03,9.634941986503400835e-03,1.245968476176222139e-02,-1.173576286665414456e-03,2.241778759975942420e-02,-2.737238931490636878e-02,6.487950557862731411e-04,-2.619661741285873521e-03,1.560138490688291191e-03,-1.407413208604792014e-03,1.167551468715666459e-02,-2.062518663081105812e-03,1.332712850580713981e-02,-1.382214057220618262e-04,9.464592118869296321e-04,-2.523668793164621921e-02,-1.207695053757639608e-02,4.199010125323573116e-03,-1.930631868993329045e-02,-3.988809577090168031e-04,-1.249311609280774442e-02,1.328374955878666025e-02,-5.112028880272324882e-03,-1.336360014171654930e-03,9.180150970859611223e-03,1.626263872484394468e-02,-9.235045659722843081e-03,-1.530363712105418115e-03
2.687206079341828910e-02,1.240750741919087984e-02,-1.261846536099823189e-02,-1.668136519032307769e-03,3.905664419880706256e-03,-1.552838514185720872e-02,1.410307740459269387e-03,1.508378813194529745e-02,2.157474361354127373e-02,1.387144288191268816e-02,2.938511033678710849e-03,2.727751843207255802e-03,-1.256510568011272137e-02,1.009554814517453014e-03,1.605217974333435563e-02,-7.771458795817895275e-03,-2.155816579392217866e-03,-9.556083011222200191e-03,-3.213019720604248265e-03,-1.507855403717288031e-02,1.701930522249610334e-02,2.854362747565159994e-03,9.109318467397412369e-03,8.157538919107743675e-03,-3.983093891387508127e-03,-3.778348262349315399e-03,-9.449617625974092439e-03,4.074960286948556797e-03,1.542625929060881945e-02,4.462507792546125188e-03,-1.629269111791326876e-03,-3.116043447167692829e-03,1.715444210749449789e-03,-8.267868093044987779e-03,7.891723053740647142e-03,4.883087823865209058e-03,-1.477558733031601214e-02,-3.169245222385799234e-03,9.315917012914056491e-04,4.174440095523972269e-04,-1.144710080426180991e-02,-7.520570345545745522e-03,1.580386969007916906e-03,4.393871419489261618e-03,4.408552357279175472e-03,1.675556332317118622e-03,-1.797683494621018846e-03,-6.203643014149930364e-03,1.183301765376820053e-02,3.471751340879643331e-04,1.248529020137655390e-03,-7.340437200391509813e-03,-6.938908902431622193e-03,-7.379860170773137190e-03,4.108224749363781694e-03,-4.606734037916736940e-03,-1.540233422677237361e-02,-7.238001103276392630e-03,3.233372072020455554e-03,6.056628089152697042e-03,-9.182745905012305518e-04,-1.561966389537118756e-02,-8.574111452730287866e-03,1.544171137884278212e-03,-3.418447413025552800e-03,-5.292656274060229989e-03,1.063131411754176213e-02,-1.566098774338604491e-02,2.391901454020318400e-03,-1.394359289748406741e-02,-8.710728251120233162e-03,5.961037389183274776e-03,6.494231539929836566e-03,9.052639444481874395e-03,1.627174044037227318e-02,8.581245389087790998e-03,9.001703742227530960e-03,5.508853535284669208e-03,1.441141924179788203e-02,7.777983249724419561e-03,-1.405895843554419433e-02,-9.695153145041815121e-03,3.803416927319259316e-02,1.590416802921078634e-02,-8.756598773010486336e-03,7.731082368605908181e-04,7.762274619091562083e-04,2.010838998068956163e-02,-5.947797023036334452e-03,-1.399946223105932343e-02,5.050874580082550906e-03,-1.957770901353605292e-02,1.003777325980523445e-02,-2.480956581937998531e-03,1.739856077432581308e-03,2.231472076509746424e-03,-9.471622753708294415e-03,-7.570428611413513274e-03,-5.833873864774232962e-03,-2.002241222353803429e-03
-9.926501710557764438e-03,-2.378590048114825189e-02,1.814368304472289625e-02,1.220306663824743650e-03,9.900054574029090032e-03,2.083322676547952335e-02,1.193867671508692767e-02,7.606703232038472019e-03,-5.125955430365698555e-03,3.488064554277075548e-03,-1.005086107784961512e-02,1.996599996610963403e-03,5.553459488395468121e-04,-1.505807915015844496e-02,6.880017595695129065e-03,1.178832557759248480e-02,-6.529569810029185479e-04,-1.345999558006207714e-02,8.102581310032332465e-03,-8.308468960027501349e-03,3.593486039617300228e-03,-5.498387075715696279e-03,-2.697489829203447362e-02,5.012142784125606272e-03,1.118054647078315462e-03,-1.801759085526705292e-03,-5.361804404053157648e-03,4.545162595685047890e-04,-3.690012112638321306e-03,4.239567909097899032e-03,1.590505235759991781e-02,5.960840648704351756e-03,-1.533743716171086528e-04,-2.001995550773449754e-03,1.157084214956314618e-02,-1.197440956274796464e-02,-1.769064878189338620e-03,-1.438082844912599856e-02,-7.517556266982556830e-04,6.489570382446643859e-03,-1.315910468024657394e-02,1.040366240687048234e-03,-1.381618448722013621e-02,2.953128665340136461e-03,8.667358057551819220e-03,-2.039716709398910720e-03,2.398183154654613247e-03,1.935250708344984916e-02,2.388407798249290656e-02,-6.015160215702641811e-03,-1.734073624646041700e-02,1.020084865430818076e-02,-4.035800837142348475e-03,9.872488881082492132e-03,2.239562672201909216e-03,-7.303790821911021990e-03,-4.514744318635500152e-03,1.426671572296282775e-02,1.089408277985483980e-02,2.041813068800838252e-02,-7.232055020536825966e-03,-1.047861063156226707e-02,2.803734209946319878e-03,-8.087746078173273234e-03,-1.778039938189133334e-02,1.181834986618383702e-02,-7.010828691017008570e-03,-1.007016058283043006e-03,1.376698095729435864e-03,-1.574469035785982466e-03,2.391389171925747351e-03,1.557686691651880874e-02,-5.136279709780846615e-03,3.809676389048216941e-04,1.870570083936144365e-02,4.129280560687314215e-03,5.131334705289953592e-03,1.582137322729897230e-03,-4.192400994353249685e-03,-2.322918025019004434e-02,2.087228464809878781e-02,-1.888779435252585862e-03,7.932287817221145461e-04,4.275774447807139007e-03,4.208082676283709730e-03,5.573159443528290756e-03,1.008397567739431969e-02,-4.022513623620638766e-03,6.880971554091175335e-03,1.355102138778808453e-02,8.762487016156897445e-04,1.715031135046987329e-02,2.893625908506025548e-03,-1.768979287646381057e-03,5.102437160258333111e-03,2.522068761576812170e-03,1.510801348774056321e-02,7.231156321934988085e-03,-1.373233984220672069e-02,-2.500420352563258695e-03
1.050492539067584500e-03,-2.008804339572368633e-02,4.868233564857871870e-03,3.024422769624657541e-04,-3.839389424046494442e-03,-6.159317616200270587e-03,5.387129101854711563e-04,-8.591916574201276594e-03,-1.982308625321853660e-03,1.318718015936856669e-02,-2.946174195574209793e-04,5.571342391170151787e-03,-1.085033621717973289e-02,3.801243593759704321e-03,1.760567371685376609e-02,-9.509879484982906861e-03,-8.676207407667942823e-03,7.087805053829654249e-03,-8.723342233366222429e-03,-1.309252052554506392e-02,-7.055143679145343960e-03,1.309641607599218611e-02,1.479785696037849013e-02,6.110051069300681537e-03,1.293066398564484548e-02,4.545676199298768691e-03,-1.286002829106928751e-02,-1.179561715193397364e-02,1.318781399435771384e-02,8.320841237733302490e-03,-3.136610683525467742e-03,1.273340934997535707e-02,6.380913155458284476e-03,-1.821317446309896407e-02,4.398798949489812066e-03,-6.165911019483808278e-03,6.417278248439874143e-04,-2.846958459547768890e-03,-2.257830412729501524e-02,2.046164945596528478e-02,-2.416832667857472805e-02,-6.537228001243489649e-04,1.154067964376559105e-02,1.136730817514601533e-02,-1.055584893886439210e-02,-1.425492597791446978e-03,-1.746574641257226442e-03,-8.209592367516485925e-03,2.302090025490954525e-03,-1.012402000337305624e-02,3.955138172864835697e-03,3.081984683337296756e-03,2.049125493735117626e-03,-3.902208008403039441e-03,-6.154012742944597707e-03,2.502609372993346969e-03,-6.450365808023624144e-03,3.377979012506759221e-03,3.644196254571469094e-03,-6.078549548929279567e-03,1.155588826898159682e-03,6.710631115173632238e-04,1.094296336201071307e-02,-3.911486657211028263e-03,1.346411801472107220e-02,-1.059742981694383919e-02,1.666296651053815470e-02,5.175209091598811061e-03,-1.182942907215387730e-02,3.051373185614409279e-03,-3.172595550984942669e-02,-1.349927438948760050e-02,9.826788499334061441e-03,-2.488232692510589789e-02,-4.851427089542092660e-03,7.557810196790141349e-03,1.178490816842756375e-02,-6.095149648478684172e-03,2.193795237292843914e-03,1.618744057975806533e-02,-3.827596885520071716e-03,-2.249957151918729678e-02,2.896469885191753813e-04,4.136928119041339939e-03,6.788255568179371591e-03,-2.241822609695497126e-02,-8.490451410439983637e-03,-2.134967020214537711e-03,1.073289432050341177e-02,6.391304770975563009e-05,-2.048141253325514496e-03,1.525560555031080755e-02,1.038308855412832174e-02,1.880456967832069837e-02,1.691171059274246963e-02,1.977249524561014785e-02,-3.919146927094930427e-03,5.126401077401210489e-03,5.413603017941077782e-03,3.693438775234588606e-03
3.985093106354395225e-03,-9.539297956419553332e-03,-1.632752323251193682e-02,8.982708607151333388e-03,1.111905583690574184e-02,2.181427486090155700e-04,-6.683955519196475847e-03,8.849832969960325785e-03,1.896765072560094301e-02,-5.552677929118033165e-03,1.361586586473569928e-02,-1.708262404433567860e-02,5.408225206653917948e-03,2.127726945955293533e-02,1.588718429955924757e-02,2.638235645286289739e-03,2.661232255514478159e-02,6.306322288027255314e-03,4.272468668309513384e-03,1.372538899403195119e-03,-6.627581034124339215e-03,-1.617486620043365403e-03,4.510187465470974835e-03,-3.325539339361830056e-03,-7.824000782326917883e-03,8.151427564990211885e-03,-1.432980399927399938e-03,-8.387188033294702347e-03,2.116360080367780862e-03,-6.716726465991644697e-03,-1.398144545271977172e-02,-4.866827046503133594e-03,-1.720980582105824386e-02,1.139370991689850690e-02,1.135233625759589360e-02,-1.289439614371631557e-02,-7.209681885167530321e-03,1.776760734593582636e-02,1.703241995850311025e-02,-1.949314834966277927e-03,-8.079011797547270071e-03,5.294256715599823408e-05,-5.120320698958980357e-04,-1.123903147191496893e-02,1.455629341906300965e-02,6.089473477737249694e-03,1.187785381250101857e-02,-1.938329630655609686e-03,-1.756273313909553421e-02,-1.259239715445473716e-02,1.734078368339169590e-02,-1.315364524588997878e-02,1.702521322776166801e-02,1.987130832507650116e-02,-1.269523519304083508e-03,-7.190719099002765118e-03,-8.571720956351860238e-03,1.129986595149940105e-02,8.065974034949416685e-03,4.325138262986413101e-03,-3.523638261212022876e-03,4.634667395989669307e-03,9.235117693257018784e-03,1.917926593158299567e-02,-1.452297608020477679e-03,-1.124223097624306791e-02,5.981782534453678087e-03,7.412627768050140606e-03,-4.861313671444121576e-03,9.727795104529698283e-03,-3.771854771082169735e-03,-7.790050056237649706e-03,-8.254991382799789848e-03,-1.824938762216581079e-02,-1.509570196228321101e-02,8.674299051573604660e-03,-8.841092906643224086e-03,1.538182042726532646e-02,-8.681976369044884165e-03,-3.382865286756231698e-03,1.329683415197975560e-02,-3.041898979833996403e-03,1.179927346769750387e-03,-4.974879942863916042e-03,-8.681761035119037098e-04,1.162371515964545328e-03,-4.883124338617754467e-03,-1.025699865182706089e-02,-1.522364983746187601e-03,9.117886125787531826e-03,-2.327185628867948445e-03,-3.323210063848951352e-03,-3.717895077861976989e-03,-9.251620555364544612e-03,6.337542560578692669e-03,1.653743577807715789e-02,-9.694454287859612801e-03,1.355470289936720404e-02,-6.828943971286050366e-03,4.792218401582482544e-03
2.459509901979320466e-04,-3.077397562449999281e-03,6.618064449536092270e-03,9.420320929827743703e-03,1.114035330822115213e-02,2.341277573917295227e-02,-7.836743451893666765e-03,-2.896399918658281846e-03,-1.270356935424897180e-02,8.015271967130447803e-03,-6.530509791993583876e-03,2.838414174948465912e-03,6.804488777760365689e-03,-3.154525183940807935e-03,8.257512036892072568e-03,1.578351452161456947e-02,1.091420837682734006e-03,1.034589302322788847e-02,9.817612107755144951e-03,-4.840919486393464519e-03,4.269817444943160845e-03,-1.237481464795381174e-02,-1.242274315197216400e-02,8.724916528181842976e-03,-1.046361483199199048e-02,-1.218275711142288503e-03,-6.630710383071283624e-03,-2.306874392950193208e-03,4.216177155556681891e-03,-1.686015039854358709e-04,6.285922789427313010e-05,1.209344651882727356e-02,-2.672910492470172150e-02,2.074561368584951562e-03,-2.891855133795417487e-03,-2.736583581987952953e-03,8.586797867229869693e-03,-1.519444283054982581e-02,-8.231129802742084833e-03,-6.613565094823734003e-03,7.423016116656419930e-03,-6.653462765987124168e-03,4.419587274361645376e-03,1.267848100646746167e-03,2.212892054792897373e-03,-1.352451511388796587e-02,-3.195565683381276778e-02,-6.213922051313852668e-03,-1.882465674195708642e-03,5.578909912853928683e-03,-8.802455716657341805e-03,6.724190180846113807e-03,9.907249179462869829e-03,2.725826276783770586e-03,-1.525940864551584945e-02,-7.770369090061108805e-03,9.919691267754660036e-03,-7.376495721055341577e-03,7.028625899921813434e-03,1.345274173725081839e-02,1.912415974278921203e-03,-1.382542830726537532e-02,-1.658398129575199258e-03,1.794113632290763802e-02,-6.622318248603636243e-03,6.351766161154057122e-03,-1.528434445078736626e-03,-1.521623644229152909e-02,4.343115294460023028e-03,1.097256508618994937e-02,-7.554125784751329099e-03,1.455408831287309003e-02,5.352328727449788721e-03,-5.995124739198399652e-03,2.713913325253796208e-03,1.484737183232848375e-02,6.255398208542732250e-03,-3.141893045793815991e-03,-3.485184714203332004e-03,1.590127554169877208e-02,-8.852332467469024510e-03,6.197353954840461102e-03,1.573724870820583654e-02,-1.454343684888757815e-02,1.279635598831569342e-04,-1.389153201867397757e-03,-7.773110133486946932e-03,-1.014143602617199012e-02,-2.126291597373725778e-03,-5.758850664475199076e-03,1.505172580330141514e-02,-1.263778270180627820e-02,-1.622399854220860776e-03,-7.136357805029198108e-03,-2.511573524080298533e-02,1.122771035713293619e-02,-2.387118729388957791e-02,1.653634666699031752e-02,1.859409797513283252e-02,5.117485027983801000e-04
-1.253208788161580284e-03,1.727409948668435710e-02,9.669253502968757838e-03,2.433106941706311439e-03,1.865695810688806910e-02,7.847631669222074335e-03,8.326148282563511013e-03,-5.104041566230915587e-03,-3.006299600644169422e-03,-2.961601092186861347e-03,-9.543398244217267748e-03,-1.078150859767194533e-02,8.472675467547681818e-03,2.756501126618084684e-03,-9.189180235516606352e-04,2.339901543065283848e-03,7.297158556932693309e-03,4.563558347174108583e-03,-5.240430225796181580e-04,9.189851778247841788e-03,5.709694850653096974e-03,2.181461944581612744e-02,-1.318179371046985550e-02,-2.061109928549749882e-03,-7.668279772235758913e-03,5.444491343641591832e-03,8.577971554820793681e-03,-1.694452034135639999e-03,2.311943900196165771e-03,3.914512323579506271e-03,2.006801275153206594e-04,-9.506935212260647639e-04,5.653745667114364569e-03,5.695831209305054349e-03,-1.228397222814739571e-02,5.987904723503614281e-03,-9.508452553046930708e-05,4.970569374065451343e-04,-3.849513274799909977e-03,6.256296334620183724e-03,1.201611133611074460e-03,-8.521995969789222108e-03,8.495762219292173414e-03,1.015394054124302021e-03,-3.333185726438805604e-03,1.737524784732311783e-02,-7.357579319587290168e-03,-1.642115480375653082e-03,1.101442265619243834e-02,-6.009651183952005073e-03,1.733136789646835471e-02,4.345480564282158740e-04,-1.135925966686769477e-02,5.987813748537968404e-03,-6.022291503828824943e-03,-2.947730753124082597e-03,9.548921931994131321e-03,1.140003740543893591e-02,-4.235042576654688903e-03,1.989709729728512261e-02,-2.088651306749259636e-03,-1.009667949442331035e-02,-3.565799693942938407e-03,-1.239236542187014019e-02,9.259502980856268786e-03,-3.177966437542807492e-03,5.660124654855227221e-03,-8.873097190081608368e-03,1.056635472393238281e-02,-9.541901071739270976e-03,1.338103739331508897e-02,1.732501203778123375e-02,-2.392796771201059075e-02,7.187705051127960335e-03,-3.732914358981058792e-03,4.563787891889126928e-04,1.434895078223652996e-02,-1.959202111881326591e-02,-9.692205465350094140e-03,-9.111998091400557538e-04,3.183489051390877515e-03,1.183402589961179974e-02,5.873729122542343736e-03,-2.253846316552201787e-02,-1.029346636174325626e-02,-4.382308207163353869e-03,2.866634556450664475e-03,1.462535947298647734e-02,-1.210361397177553075e-02,-7.542846201110136109e-03,-7.668003115800899744e-03,-3.141038892236493966e-03,-2.113029077303561418e-02,-1.334780490111731055e-02,4.080486166454359333e-03,3.616414205262273845e-03,9.205595491416775772e-03,1.898463408616092238e-02,1.513502714358173212e-02,-3.094546370629636025e-03
7.851613754565195391e-04,1.440053325063555927e-02,-1.234041873683001077e-02,-1.082028294510325658e-02,-5.809582672272834390e-03,6.700849149298769569e-03,-1.400633606788079764e-02,1.362413363371074888e-02,-1.713746879328654528e-03,-1.007870396778896491e-02,2.036547129698820791e-02,6.931745215683729998e-03,-1.159795248786355502e-02,3.171095297030501400e-03,-9.812972834932574134e-03,-5.113142599691040090e-03,-2.028467431757747554e-03,-1.956355441652285389e-03,1.919260186969353301e-03,3.056163884870617947e-03,7.439131762172430072e-03,3.290098286031054075e-04,-1.923637889586111288e-02,-2.547584434385618060e-03,-3.003044864372086346e-03,-1.219230025591197183e-02,5.664961716730964984e-03,2.545668492047122294e-03,-6.000764850661882525e-03,-5.585462668159713560e-03,-4.516185460412001744e-03,-1.237140500958326325e-02,5.154047844113587330e-03,7.505279596244265883e-03,8.195676997371552580e-04,-7.344130247524862515e-04,-1.441389609118500122e-02,1.872185399051846250e-02,3.868237236586516067e-03,5.123202992486387657e-03,-1.778577670748933979e-03,-1.601468536111638405e-02,7.491039042122745080e-03,-2.044939368766801949e-02,1.829647178743741814e-03,-6.186611213343506770e-03,-1.560055986653928299e-02,-2.738105229297108870e-03,-1.305216944843779099e-02,-4.704290652159790441e-03,-2.513819157430011771e-03,-1.868483613188768461e-02,2.421652639566462123e-03,1.737232479023040690e-02,6.057450359419911182e-03,-1.964487297079053549e-02,1.700741040847743649e-02,-1.878547572027453039e-02,8.314485032757525790e-03,7.166525043041871261e-03,-6.008680312834148093e-03,-6.363952419046965507e-03,2.734904106915279822e-03,2.060196575818855347e-02,5.663221673924946631e-03,-8.253782820234182097e-03,1.145178697858449668e-02,1.550995288906616490e-02,-1.424882732486116438e-02,4.734116649302455571e-03,-8.415805600156360533e-03,-6.893368139863205414e-04,1.355403588744252645e-02,6.003487806190432180e-03,-2.218515691866949479e-03,-1.241348428890660244e-02,-8.599151654760222793e-03,6.496981400492731623e-03,-5.521727279049005836e-03,-1.349478650784084396e-02,1.847851517171511873e-02,1.680082358486135324e-02,3.528373743229416826e-03,1.004926469781906515e-02,-4.417594600092593186e-03,-3.881530080346205606e-03,-4.450257688845975917e-03,9.885907104022005187e-04,-6.148791278039471460e-03,9.314166882944880863e-03,1.905315490856528257e-03,-1.294527937660235875e-03,1.467772543487534838e-02,7.223007240320543018e-03,3.817835941224145390e-03,-1.186758916854002872e-03,-4.419157191823995870e-03,8.080580394720969853e-03,5.322545975930912179e-03,7.568724848224060199e-03
-1.650725588109248606e-03,9.816253780672149799e-04,1.895236653909741255e-03,-1.181717777946555796e-03,-1.270775381599636121e-02,-4.331569537540103099e-03,1.030268820085965265e-02,4.218879690950669108e-03,-7.619815587612358563e-04,2.266890964991908716e-05,1.670224095151337171e-02,6.916160437340108762e-03,-9.791914737026549687e-03,7.217478381079266495e-03,-1.005800151015304005e-02,1.169852934836117242e-02,2.036593087515598671e-03,2.068609652126407808e-02,3.682803005608566681e-03,-1.000253545640725564e-02,1.425997269263829144e-02,1.205761902186486961e-02,6.417862128422386313e-03,5.916241919776692344e-04,-8.941691950550225212e-03,-8.010104485422178677e-03,7.019670777899764125e-03,2.505092140025744901e-03,7.493145971651528001e-03,-2.074665129743832534e-02,-1.453642257783697381e-03,-3.903181797354495722e-03,-2.029168893489120828e-02,7.452021379062237841e-03,-1.445111805431834040e-02,-1.823589867823818583e-04,7.766881124908300502e-03,7.286206767713136051e-03,-2.484739611491967003e-03,5.247534043885412544e-03,1.463141507035710777e-03,1.433733666023512439e-02,2.525948976256589106e-03,-9.028826505958504473e-03,-1.088646970689400445e-02,1.753786087152818529e-02,-1.455326454545907006e-02,1.133469201396536180e-03,-9.435481286024961431e-03,1.437857784132395497e-02,-1.885062838277969674e-03,-3.132495224105050820e-03,2.003534245834273295e-02,-1.298730388924652229e-02,2.631555831456852852e-03,-1.201408769974958088e-02,6.400309234110119171e-03,-9.037480373135921979e-03,6.507887267579040048e-03,-2.178383937256253566e-02,-1.743467124150399443e-03,1.426096884029334246e-02,2.028962169401055463e-02,-2.981708752754633814e-03,8.970228281790474864e-03,-1.190677206956376744e-03,9.370836141285426510e-03,7.880960153665447776e-03,-1.244420473268047569e-02,-7.538888134879587199e-03,-2.400767844124726200e-02,-3.700481624447383815e-03,1.807480789092225093e-02,-2.130916117669527654e-02,1.786972284654973590e-03,-9.810579121555778725e-04,-3.342149553116168740e-03,1.908441542514055901e-03,1.448488476000686295e-02,8.438695249557820119e-03,-1.381199289067122984e-02,8.642056451490162921e-04,-7.130384638438179955e-03,2.716336952197697611e-03,8.552399328786887064e-03,1.380561203182232785e-02,-5.816367144405999549e-03,-7.676118771932064280e-03,1.806377664387107812e-02,-4.739253480255133100e-03,-3.005713299291522689e-03,2.102980782387911182e-02,5.175115947316004383e-03,5.254311111309814021e-03,-7.567891300002313991e-04,6.382371265142108320e-03,-2.585324578348555200e-03,2.946207910519895758e-03,4.356447486338044760e-03,-2.088676390215094859e-03
5.677480500312055180e-03,-4.536157108461933742e-03,5.029017786140782889e-03,-1.018568109719544075e-03,-1.078349386469674293e-02,-8.040867651217279907e-03,9.444286365236044187e-03,-7.937184974098378254e-03,2.353657260726837661e-02,6.930570524269630142e-04,-1.275500049991435715e-02,-3.262345007091293960e-03,-9.162578983027504231e-03,1.296849932409337549e-03,-7.142388253781021754e-03,1.421719021761503297e-02,-6.327418219870082662e-03,-6.404296801566293669e-03,1.253485743418162246e-03,2.913343458183180728e-03,-1.988585166605268476e-02,5.310298879333827729e-03,1.110248186530527793e-02,-4.595159488542748492e-03,-5.180337506781144095e-03,1.379944464998632834e-03,5.472993731240368386e-03,2.855672116407148532e-04,9.801427007918540532e-04,1.736517334536716306e-02,-1.595355960177017099e-02,1.819483015496582744e-03,-9.325904106347174868e-04,5.735953232652842536e-03,-8.911874528630988126e-03,-1.635203096784551210e-02,1.612017675709099748e-02,1.781078786492653080e-03,-2.029632219912796617e-02,2.146445187110272018e-02,7.014572491727664614e-04,6.997560386439245946e-03,4.729632980395865292e-03,7.872879033309726450e-04,7.407437434970798318e-03,-3.791193917107102277e-04,3.160242797620740896e-03,-1.301397857151585617e-02,1.077844730407386681e-02,-4.733375314257715072e-03,5.112648993990399557e-03,-2.239136438518518277e-02,-6.308308999947518335e-03,2.619193326341204189e-03,5.568860473945538327e-03,1.295115578691698405e-03,1.499322726533378405e-02,2.510109246337291662e-03,7.084037491632257967e-03,6.388194892986552575e-03,3.035424490290556526e-03,-7.290960250282496960e-03,1.956803747862823420e-02,6.518271694409411877e-03,1.694723148665019247e-02,-9.299741652601375974e-03,1.991110662345298762e-03,1.214625268608952348e-02,8.413058936392363990e-03,-2.062113238153481277e-03,-1.076534853706519537e-02,9.980106154010353822e-03,-1.056499516089283745e-03,4.309100654280654239e-04,3.552824991978282936e-03,-1.956794888377917218e-03,-5.017802137192626209e-03,3.431769972940888758e-03,1.705776475025020528e-02,4.902692361757178194e-03,-2.258701707311943502e-03,2.683690606376953284e-03,3.854462212327848351e-03,-6.176021308728023469e-03,-3.888342295820078863e-03,-5.057017305185561307e-03,-1.204495962203333201e-02,-1.782077685759608787e-02,1.409850766534822468e-04,1.413385874123812384e-02,-1.643238547570370287e-02,-7.871947133599626820e-03,-9.952874333015388278e-03,9.571199643448316183e-03,1.233686537602948947e-02,-1.730781438953397922e-02,1.491809842063550849e-02,-1.366036036694406007e-02,5.622310990549368379e-03,-6.611106118695045386e-03
-1.763766966378548309e-02,1.155403328516933781e-02,-3.066256686217465506e-03,2.407644835592260332e-03,5.160010634547538243e-03,1.626327550614779793e-02,-3.947263128939183449e-03,6.824383314648021018e-03,9.722746999569827075e-03,-2.604134255394588860e-03,-5.492173347522344602e-03,5.281824361564757151e-04,4.128525856149721507e-03,6.979340427442572332e-03,-8.463278632413999284e-04,1.000970095374784444e-02,-2.134746036294847635e-03,2.293466466543215166e-03,-2.139027659250900611e-04,1.971126493996770354e-02,9.591444673998475760e-05,-1.135977063047173552e-02,-7.502438203805130053e-03,1.133280873270221464e-02,-4.497101903200613135e-03,3.315131679946507325e-03,1.555926682629727061e-02,2.191031670226229952e-03,5.137578747098049507e-03,2.656637798765642058e-02,1.389539908482943353e-03,-3.355902071231782317e-04,-2.792513052752701886e-03,6.907245705119247937e-03,-1.789351162006848697e-03,3.193837408448796638e-03,-8.156260072235929290e-03,3.086501924156935615e-03,-1.476872373333004522e-02,-5.704479145031983098e-03,-7.550868416722667301e-03,-7.570646194325321779e-03,-1.022846813199315349e-02,-1.573156598637341641e-02,-1.031913832399768659e-03,-2.090340782606744160e-03,-4.536545389013578629e-03,-1.935439063473961066e-02,7.398474813900144699e-03,1.452217379285961063e-02,-8.949395609294866910e-03,4.708972010064893868e-03,-4.514185743514409314e-03,-5.421329389316915416e-03,-6.027739323916478549e-03,-1.673671555165149802e-02,-7.482428906002841495e-04,-1.249433895055523762e-02,1.042332481075243164e-02,-1.121348309477085978e-03,-2.682093904478547158e-03,1.765381662479620015e-02,-1.948854579188975073e-03,-6.352711173562796548e-03,8.229129400350901694e-03,1.017170645237499595e-02,-7.295498803483995570e-03,2.768411163828116139e-03,3.150459704832233795e-03,7.005043703266564635e-03,-2.172958784958396901e-03,-1.977015089061233064e-02,6.556723428657940285e-03,5.317044722821051214e-03,4.474061801976610651e-03,4.759663428288940686e-03,-5.429902395058885251e-03,7.843554193617364306e-03,-6.328438854978334256e-03,-1.627965292402807143e-02,1.246076693516761204e-03,-1.222855843244561322e-03,1.408720018201202288e-02,-2.078804889295699995e-02,-1.302511767227410716e-02,8.031561538252093499e-03,1.137398659221905070e-02,2.782128949343704374e-04,-3.660727131835315139e-03,-3.200124729910657460e-03,-8.501665229504911866e-03,-4.531796996351328960e-03,-1.128171331774163906e-02,-5.512772922233556000e-03,7.009832006904356989e-03,3.996613074958362856e-03,-1.715252641747923691e-03,-1.488508819599666973e-02,2.293171381415295604e-04,-2.358654487677751613e-02
-6.200075895786439154e-03,-1.308889153304323635e-02,-1.236602678412380280e-02,-5.530393246380108790e-04,5.525496950013842300e-03,-2.935025384530799523e-03,-2.081391343843743118e-03,6.226370598347793356e-03,1.390545766412539961e-03,1.319185014266999016e-02,1.025412540928986134e-03,5.292576550012659774e-03,1.746227455417340927e-03,1.437307056693143750e-02,7.220528568877835826e-03,-2.178586412894472453e-04,8.656305483426000175e-03,1.735268691243249672e-02,7.054163298674630614e-03,9.238807586508329672e-03,-7.565115428031169830e-04,1.460151862642146761e-02,1.632080288147277208e-02,-1.118846376828428781e-02,-7.774598797357385599e-03,3.041054159611995128e-03,-2.926226507026463003e-03,-1.730325785024226792e-02,2.217934347384422841e-02,3.425342302410582310e-03,-1.634412922710159685e-02,8.546724327696725992e-03,-2.297580846464034737e-03,-5.705975612111984646e-03,6.537849454713727700e-03,6.369103214171782830e-03,4.898504551367243234e-03,-2.071639408834086843e-02,-2.113293459258563066e-03,5.691245275193664889e-03,-8.688115135201275249e-03,2.524054522067116849e-02,-1.452766405018815314e-02,2.878313837065403936e-03,-3.818206717463059653e-03,-4.579814721625245430e-03,2.082843132057190724e-02,3.651369215775150147e-03,1.390202519082123049e-02,5.987497090836277347e-04,5.706414486118542920e-03,7.535500201940781469e-03,-4.535613403482105337e-03,-2.931596822305252391e-03,-3.746617999058375679e-04,2.619320042500009049e-02,6.833804037173098547e-03,-3.413141837295746803e-03,2.475187234484898190e-04,9.596627628908092206e-03,-2.696161581858575514e-03,1.659742555195323655e-04,1.547663777926111886e-02,-5.765897084958678843e-03,8.219620088295742644e-03,-7.690667553676399856e-03,8.432788896534065392e-04,1.116790896860635337e-03,-7.787413920877327492e-03,-1.461750745373029646e-02,-3.169857529050355491e-03,1.133822470350895166e-02,1.089643276642779900e-02,-5.425590045934537524e-03,4.269083458451418227e-03,-7.307094471842084590e-03,-9.549622906861723534e-03,1.203913642714642650e-02,-1.097877655392782113e-02,1.034585666025218502e-02,1.413083953433600347e-02,-6.660020535630609313e-03,-5.283249407253044934e-03,-1.109148042383913298e-02,2.255399876129858192e-02,1.116866989382131643e-02,8.140964648508107124e-03,1.739793865342410470e-03,-1.426117617464665952e-03,2.730212982545915379e-03,1.670580158167546620e-03,1.666635671725615053e-02,-1.845409425329684952e-02,-1.652475024045038654e-02,4.899553091433855347e-03,4.645128896453883452e-03,-1.234692144832889946e-03,-7.016993894096696001e-03,-1.086227944865156281e-02,-4.909360771987278556e-03
-2.488336323558408645e-03,2.021892256328444368e-02,-9.281496485485124515e-03,-1.966339267759905154e-02,7.900819104581178684e-03,-2.114310430341998989e-02,1.279827671294523836e-02,-1.289407464505643898e-02,-8.975123862063848906e-03,-1.772320552514113079e-02,-5.132404471351751166e-03,-4.358732294506269776e-03,-2.295593701502933719e-03,-1.296154696081982909e-02,9.208855998158179540e-03,2.431715083954913859e-03,-1.545123910335381105e-03,-1.044405843583907575e-02,-1.344292428873824011e-03,-9.798720873158099989e-03,4.604064261801388454e-03,-2.028923747001254441e-02,2.319600653739380125e-02,-1.221250507609484767e-02,-4.783339113579553915e-03,-1.576049425164518375e-02,1.157522633799719022e-02,9.391160496991800971e-03,-3.476497950460725474e-04,1.312855268057152615e-02,1.924569378747538820e-02,1.628156952226527537e-02,1.134212801309486367e-02,-2.194375657500973950e-03,-1.063183720629692040e-02,-3.501938417842820252e-03,7.628146570463977851e-03,-9.352081233879009844e-03,3.093049800712721880e-03,9.905108544145127536e-03,8.795310857108452549e-03,-2.054206278390163613e-03,7.233854518584307940e-03,1.500224915368637314e-02,8.711905888177745583e-03,3.075343827864177298e-04,7.418384107675215187e-03,-7.101661717740449103e-03,1.322462745313429493e-02,-2.265018719445660925e-02,-4.509642156941248529e-03,-7.334287656097121175e-03,3.817511534537641250e-04,3.386213991023051713e-03,-5.399302603239242333e-03,-1.985584871323452585e-02,-3.604349483442984611e-03,-7.325763580076585617e-03,8.413585214214074764e-03,9.055488157389384937e-03,-1.547301082240341548e-03,-8.026673051317663454e-03,-7.205368466351793309e-03,-4.577508007417429615e-03,-5.565664089596590244e-03,-1.136312583734292890e-03,6.783774431374448542e-03,3.116001251693266676e-03,-5.848944378032637330e-03,1.080315319512564765e-02,5.815821761006333135e-03,-7.541707816303966187e-03,1.232342065690330245e-02,-1.504991591027469121e-02,1.577337404204573121e-02,6.143001620159046008e-03,7.440957318739841592e-03,8.104820379654657098e-03,1.845471893337223210e-02,-2.132599494741384272e-02,-1.772774805195770267e-03,-1.676392243549153921e-02,1.296571392701970603e-03,-1.284743548166736304e-02,-3.078178665864705812e-03,-7.610627571938243310e-03,-1.601931277891723709e-02,-1.459472250986936642e-02,-1.403980035444141877e-02,1.493189158260553010e-04,-1.759031860924985605e-02,-1.891281285803487686e-02,-2.817344826113120371e-02,1.370483181620120103e-02,-1.340126720913278023e-02,-1.692674846876658645e-02,-9.381686669668959366e-03,-5.452531566123070342e-03,-1.271936623318295490e-02,-3.757418935291322037e-03
-2.917672511620122196e-03,5.042701379711237407e-03,-2.118423103522996259e-02,-8.641577863624924291e-03,-3.142774496653094607e-03,-3.610306410813347942e-03,-1.167627052552376414e-02,-3.570697755844536980e-03,-2.239515780602103004e-02,9.851488357776782417e-03,-2.174699801607162669e-02,-2.095522975223692002e-03,-1.004449780913556356e-02,-5.207569702272232988e-03,-1.495607601479181708e-03,-7.476096717814489923e-03,-4.033121919413161570e-04,9.109273472644824300e-04,-1.316769906790397383e-02,-1.534555706256293846e-02,-1.604883089568399229e-02,-2.165483605608684893e-03,2.531768745940809334e-02,-4.391029611434504876e-03,1.061530372694560395e-02,-1.763075350592645599e-02,6.846860234799817362e-04,-2.653258925113825741e-03,-1.318116205197297081e-02,2.185388210643701614e-03,1.818829290754997658e-03,1.807795524171637580e-03,-5.215866048535834631e-03,8.853768332556008480e-03,-4.930904099661771733e-03,-4.847144789343289036e-05,1.637583471986679001e-02,-2.105103246179579422e-03,-8.320728667163263328e-03,1.996292019370353790e-02,9.533975203268679754e-03,1.127598652365259090e-03,-5.745280287972695347e-03,-5.905185116649046620e-03,-1.555433197069325778e-02,-5.997349978924996041e-05,-1.870733887561289166e-02,-5.670907000938473462e-03,-2.167956847137519558e-02,2.886288507488474729e-03,-1.002913662335208969e-02,-6.275087041211561446e-03,-4.572880149000980478e-03,1.481010724891140308e-02,6.801699737115250374e-03,5.326109939876516770e-03,2.636820374531907772e-04,-9.594562082322340840e-03,1.476328155460101058e-02,-1.287973508999404326e-02,-4.714106030076188093e-03,-6.766551225228215408e-03,1.687863665959896814e-02,-9.949722355866597728e-03,-2.221959827226659828e-02,1.095405979843878767e-02,-5.749501941922432156e-03,8.972293661341600515e-03,-9.666124854588439841e-03,2.365473919696067448e-02,5.102456288231565357e-03,6.456549023119873866e-03,1.560944444420916087e-02,1.203150834024610018e-02,4.016577491472753461e-03,-1.260204508479166076e-02,-1.132080259760814660e-02,-1.069315264793102398e-02,-2.625813800316492350e-02,3.762181020718062974e-03,1.364059896532301974e-02,7.083083501745543117e-03,2.977471109797964754e-03,7.709783995897146434e-03,-3.989261149571585174e-03,-6.827014797475388849e-03,2.320188838457009923e-03,2.319034617115835629e-04,-9.316363385549858780e-03,1.026995840751768890e-02,-1.077259841406088929e-02,-5.038388550913214768e-03,9.404512844705600894e-03,1.022977326735766829e-02,-2.082454875476138275e-03,-2.100427484725778463e-02,1.253378834280881229e-03,-2.938225668089715099e-03,1.206916639018833053e-02,-1.597673090628802528e-02
5.413054762964298119e-03,-4.345449450615791569e-03,1.384079071101990480e-02,7.067107503401148447e-04,-2.206316121473989012e-04,7.469653827567836885e-03,-6.238706772532440908e-03,-1.090964864609268031e-02,1.019480775239664863e-02,7.086084054928695579e-03,2.945840964938801522e-03,-2.222533340867673991e-03,-2.721159458614083679e-04,6.674504678645875114e-03,-9.272032065012267635e-03,-5.305055323791134023e-03,-1.002676538963756872e-02,-3.440196532696830622e-03,4.928708470303502266e-03,1.291706516062270799e-02,-8.680267510271396508e-03,1.045585837245930488e-03,-1.897816644975667752e-02,1.491632615826201692e-02,5.406435415873349880e-03,-3.056267335193815944e-03,-2.566705578403316850e-03,-1.934827888864973020e-02,3.326887644511958286e-03,1.089069853571271625e-02,7.643337208636516097e-03,8.736220193584920066e-03,2.429897018221283816e-02,-8.774918409464397759e-03,5.190441542600969863e-03,1.645639041081693385e-02,6.984201128427135023e-03,-6.468596364268289212e-03,1.794702317939671785e-03,-1.411393043078130842e-02,2.989698679258611866e-03,-4.318680629102750884e-03,3.574627574250398461e-03,-8.524223612026347180e-03,-2.801068047457030800e-03,-2.225908771060004874e-03,-5.543835610603496146e-03,-8.789175370529505064e-04,2.039301790642833630e-03,5.460662547029702593e-03,1.663611502796609118e-02,1.294273307049457989e-03,1.129948842792638519e-02,6.013596851840223752e-03,-9.122797738715483079e-03,1.686457684818976413e-02,-2.974363737631588889e-03,-8.231685847514659884e-03,7.164435342919935534e-04,-2.559049288992541141e-03,5.121986069205005689e-03,-1.561875243484230416e-02,8.908707299911380537e-03,5.531215439781493257e-03,7.106888900340007850e-03,2.204156518820940720e-03,5.722927764149511945e-03,5.106174535932954048e-03,-2.556029029755625074e-03,1.974414868495029656e-03,-1.064818229931329720e-02,1.020681580458912378e-02,2.763498840158100725e-02,7.404325856398393836e-03,2.919051080057934872e-03,-1.604178261900285341e-02,1.654816332846260549e-02,2.774081547185809106e-03,1.168276547280101482e-02,-4.803545248011647020e-03,-1.027502234977885473e-03,-1.849811944548714884e-03,7.034920024571494207e-03,-7.386634896016887851e-03,1.162409524264881693e-02,-1.273838487822239645e-03,3.041287318565632797e-03,4.396014602481287253e-03,-8.079816833771114731e-03,-6.432170216832164278e-03,-9.606930252228203725e-05,-3.000701932545370935e-03,-9.016710722237716510e-03,2.992935989248499368e-04,7.847754134132427575e-03,-1.300732837179815332e-02,4.032552687973183642e-03,-8.209957918632739687e-03,1.687456556815772335e-02,-2.003126061408690498e-02
6.488299748579284820e-03,8.569067377402842791e-04,-5.232518479217121085e-03,-9.372142322674191159e-03,1.312457642293224716e-02,6.846119819945788686e-04,1.026827681433128796e-02,1.410163913211473670e-02,2.396321275941728016e-02,1.666531155565684018e-05,-6.467690288040194024e-03,-6.778155918879010325e-03,-6.293633511488183271e-03,9.578170283490322363e-04,-7.587500892794644264e-03,-3.481044264282787473e-03,-5.858499029989321441e-03,-5.569317353325151099e-03,-2.064278436126827155e-04,1.122654701619577554e-02,-7.546684689886665708e-03,-1.633801947445769759e-02,8.263715050142769747e-03,4.027429292650162689e-04,4.271378043183532425e-03,1.789650879770197239e-02,1.195292523226068257e-02,-7.795380274352934659e-03,-1.022814301464435548e-02,1.792720005318197305e-03,3.361594697893169770e-03,-1.948098594774545084e-02,-2.426371915599368975e-03,2.967631252373053533e-03,1.895671673248223044e-03,-8.220123835502701065e-03,1.722521370009255995e-02,-1.728613123744856530e-03,-9.504850775686735781e-03,3.521429855031267975e-03,-9.309996452810760312e-03,2.150549276604384226e-03,-6.826068553621411107e-03,7.009366340965023090e-03,1.797078461022996732e-02,7.011943181233340483e-03,2.072470433937084050e-02,4.098344013252555595e-03,1.189375932218307910e-02,1.663154312231004961e-02,-5.767290100655721825e-04,-1.540234779952465508e-02,1.246658469260217804e-02,-8.299930896452079737e-03,-8.450786213393408908e-03,-3.018718929772623918e-02,5.457034326091475367e-03,-2.348188504393853096e-04,1.024434137741905317e-02,-4.023011362969906683e-03,-1.740276973534944996e-02,4.291390088981912512e-04,-1.090249296827302703e-03,8.214373612481012596e-03,5.768921849069146360e-03,-2.495815234714961629e-03,6.300854550585455530e-03,2.265267819738857671e-02,-3.741377837538240742e-03,-4.346865702731822489e-03,4.292586996014598200e-03,6.654306697348334049e-03,-8.089498005823869686e-03,-4.091717004193486627e-03,-3.764849676462208097e-03,4.101367723854519587e-03,-1.097288670754660751e-02,-7.548777471298103196e-04,1.555331854719888690e-02,-1.273287922662376956e-03,8.199724664316055539e-03,5.656230344719773498e-03,2.348866947285540609e-03,1.560328984102104903e-02,3.753375578117813452e-06,6.418035729641001150e-03,-7.576003368842078832e-03,8.747347670581153908e-03,-2.830032303323314503e-03,6.906195922614105295e-03,-1.193932040799136791e-02,1.717935898488068269e-02,1.850053847169298715e-02,4.187966620872900399e-03,4.895561924549933670e-03,2.470800488048831636e-02,-2.963846120499312583e-04,4.099262404682928879e-03,-1.495020499366601788e-03,2.272864393075478291e-03
1.051976093024013618e-02,-1.402449038698465322e-02,-5.650031178652344024e-04,-2.600022256033683241e-02,1.970787905647029478e-03,-2.678860932122345551e-02,-2.242673672135920854e-03,1.250943955299935314e-03,-4.941262174968508517e-03,1.174018209541702329e-03,-8.557572194852404446e-03,-4.567598651563544408e-03,1.055988120076160192e-02,-9.624779831106119662e-03,1.081020024229775982e-03,1.524113263466713060e-02,-1.443842065396353652e-02,-6.537372114179087687e-03,-1.986606507922458048e-02,-6.002016253736440488e-03,7.831170182420113882e-03,1.450341651186628535e-02,1.485307928027383186e-02,-6.570321063917264337e-03,-2.026934247945867684e-02,-7.409447764555574661e-03,1.128166587757640019e-02,7.217453728907296910e-03,-1.409889082271157702e-02,1.703459062167368351e-02,1.282574674210033155e-03,-5.292255737403013700e-03,-3.422057310000615072e-03,1.044145190961570831e-02,5.030577673727785852e-03,1.048565031819141723e-03,-1.426404290677861161e-02,-2.007873955856691664e-02,-1.716313544883994388e-02,-1.753733990936283405e-02,-3.582879751411108000e-03,3.174500406233878805e-03,-1.039452519657483101e-02,5.211410365508201267e-04,1.395083559771876681e-02,-1.477134224061794725e-02,1.871897852374203525e-03,7.016467850939906836e-04,-8.526957016175323173e-03,-3.384326669327758583e-03,3.921188011306273556e-03,5.487434359719768097e-03,1.633285482255718377e-03,6.929855449742635017e-03,-6.966667839212173884e-03,-7.327164066679672143e-04,6.186889866771362254e-03,-2.284486506650776350e-02,9.548728994493280511e-03,-7.884135920244145224e-03,-2.574241266539550963e-03,-1.331802838695456646e-02,6.281337286774553441e-03,-8.995084269557732451e-03,4.402736195960572398e-03,-1.315630988505479002e-03,1.936129209573160537e-02,5.844103158256006188e-03,8.518104533301649670e-03,-5.274571004232519317e-03,1.361535792597800415e-02,1.378035893914196681e-02,1.464214182308696578e-02,7.872994941711647376e-03,2.054469503934459873e-03,-2.322444503018050721e-03,2.777263533879146488e-03,2.297911795006751454e-02,4.221369292416499858e-03,-3.495700839445043447e-03,1.504775210470318293e-02,1.153579281756662508e-02,3.440803739045954907e-02,9.884911704598525056e-03,9.143176053618497917e-03,1.814226557591455680e-02,-6.445687574348842215e-03,-6.871674859614996730e-03,1.089665378660998295e-02,9.855975267634528580e-03,7.280604058356562186e-03,-5.649794963534003969e-03,-6.229621912232736688e-03,-6.673520437860830552e-03,-1.131174660802259464e-03,1.362456759653155047e-02,1.286064806723997110e-02,1.429163361103847132e-02,1.172142831611084138e-02,-4.538910185271155355e-03
